<?xml version="1.0"?>
<opencv_storage>
<cascade>
  <stageType>BOOST</stageType>
  <featureType>HAAR</featureType>
  <height>20</height>
  <width>20</width>
  <stageParams>
    <boostType>GAB</boostType>
    <minHitRate>9.9900001287460327e-01</minHitRate>
    <maxFalseAlarm>5.0000000000000000e-01</maxFalseAlarm>
    <weightTrimRate>9.4999999999999996e-01</weightTrimRate>
    <maxDepth>2</maxDepth>
    <maxWeakCount>100</maxWeakCount></stageParams>
  <featureParams>
    <maxCatCount>0</maxCatCount>
    <featSize>1</featSize>
    <mode>BASIC</mode></featureParams>
  <stageNum>24</stageNum>
  <stages>
    <!-- stage 0 -->
    <_>
      <maxWeakCount>5</maxWeakCount>
      <stageThreshold>-2.0607364177703857e+00</stageThreshold>
      <weakClassifiers>
        <_>
          <internalNodes>
            1 2 1371 -2.3197913542389870e-03 0 -1 1173
            -4.6387985348701477e-03 -2 -3 479 -2.2045463323593140e-02</internalNodes>
          <leafValues>
            -7.9232281446456909e-01 4.2309740185737610e-01
            -2.7722772955894470e-01 -9.3639880418777466e-01</leafValues></_>
        <_>
          <internalNodes>
            1 2 1402 -3.6596473364625126e-05 0 -1 337
            -2.4740671738982201e-02 -2 -3 851 -2.3751650005578995e-02</internalNodes>
          <leafValues>
            6.6955983638763428e-01 -1.5947228670120239e-01
            5.7253217697143555e-01 -8.6696839332580566e-01</leafValues></_>
        <_>
          <internalNodes>
            1 2 1741 -3.2994714274536818e-05 0 -1 1162
            -9.0419640764594078e-03 -2 -3 861 1.0148962959647179e-02</internalNodes>
          <leafValues>
            -7.6185649633407593e-01 3.7656545639038086e-01
            -6.5547341108322144e-01 5.0990569591522217e-01</leafValues></_>
        <_>
          <internalNodes>
            1 2 621 1.6518784686923027e-02 0 -1 607
            -1.4957973733544350e-02 -2 -3 1368 6.5926415845751762e-03</internalNodes>
          <leafValues>
            4.9910441040992737e-01 -5.0233495235443115e-01
            6.3267159461975098e-01 -4.3945500254631042e-01</leafValues></_>
        <_>
          <internalNodes>
            1 2 297 -5.6588407605886459e-03 0 -1 1392
            -8.4370858967304230e-03 -2 -3 213 1.7074376810342073e-03</internalNodes>
          <leafValues>
            -5.8314883708953857e-01 6.7197489738464355e-01
            -4.5905703306198120e-01 3.9682304859161377e-01</leafValues></_></weakClassifiers></_>
    <!-- stage 1 -->
    <_>
      <maxWeakCount>8</maxWeakCount>
      <stageThreshold>-2.4124310016632080e+00</stageThreshold>
      <weakClassifiers>
        <_>
          <internalNodes>
            1 2 324 6.7388519644737244e-02 0 -1 1370
            -9.4366155099123716e-04 -2 -3 401 -2.9206776991486549e-02</internalNodes>
          <leafValues>
            -2.6025947928428650e-01 -8.9543658494949341e-01
            7.7174311876296997e-01 -2.2325581312179565e-01</leafValues></_>
        <_>
          <internalNodes>
            1 2 1232 -1.2393912766128778e-03 0 -1 1406
            -4.9698224756866693e-05 -2 -3 1690 -6.1080101877450943e-03</internalNodes>
          <leafValues>
            3.4018439054489136e-01 -5.8349961042404175e-01
            -7.9828411340713501e-02 -8.2724177837371826e-01</leafValues></_>
        <_>
          <internalNodes>
            1 2 1157 1.2566981837153435e-02 0 -1 495
            7.4022926855832338e-04 -2 -3 1324 -2.8058043681085110e-03</internalNodes>
          <leafValues>
            -8.2186751067638397e-02 6.7131477594375610e-01
            -1.6410653293132782e-01 -9.0368974208831787e-01</leafValues></_>
        <_>
          <internalNodes>
            1 2 486 -1.0805610800161958e-03 0 -1 1200
            -3.5921318922191858e-03 -2 -3 365 8.0618663923814893e-04</internalNodes>
          <leafValues>
            -8.0561918020248413e-01 6.7941612005233765e-01
            -4.9544084072113037e-01 4.4377291202545166e-01</leafValues></_>
        <_>
          <internalNodes>
            1 2 560 -3.2261405140161514e-03 0 -1 1218
            2.5417250581085682e-03 -2 -3 563 3.5879318602383137e-03</internalNodes>
          <leafValues>
            6.5128469467163086e-01 -8.0922853946685791e-01
            -4.0731158852577209e-01 4.2720946669578552e-01</leafValues></_>
        <_>
          <internalNodes>
            1 2 1747 -3.4621094528120011e-05 0 -1 1543
            -5.0596348010003567e-03 -2 -3 1421 -4.5622873585671186e-05</internalNodes>
          <leafValues>
            -7.5229221582412720e-01 3.5004138946533203e-01
            -2.1786379814147949e-01 -9.1268080472946167e-01</leafValues></_>
        <_>
          <internalNodes>
            1 2 364 1.5047780470922589e-03 0 -1 296
            -1.1725572403520346e-03 -2 -3 773 1.2973764911293983e-02</internalNodes>
          <leafValues>
            3.4568020701408386e-01 -4.9726942181587219e-01
            6.2248635292053223e-01 -8.1798082590103149e-01</leafValues></_>
        <_>
          <internalNodes>
            1 2 1809 -1.4807188883423805e-02 0 -1 592
            5.5207230150699615e-02 -2 -3 177 -6.1788216233253479e-02</internalNodes>
          <leafValues>
            -1.4661481976509094e-01 6.5046268701553345e-01
            4.0771311521530151e-01 -4.3650487065315247e-01</leafValues></_></weakClassifiers></_>
    <!-- stage 2 -->
    <_>
      <maxWeakCount>9</maxWeakCount>
      <stageThreshold>-2.2659966945648193e+00</stageThreshold>
      <weakClassifiers>
        <_>
          <internalNodes>
            1 2 337 -2.1559920161962509e-02 0 -1 126
            -5.2153814584016800e-02 -2 -3 707 -8.3225276321172714e-03</internalNodes>
          <leafValues>
            -5.4271358251571655e-01 6.5560537576675415e-01
            5.7643133401870728e-01 -7.0292419195175171e-01</leafValues></_>
        <_>
          <internalNodes>
            1 2 706 4.8753414303064346e-03 0 -1 893
            -4.5553976669907570e-03 -2 -3 1370 -3.2887881388887763e-04</internalNodes>
          <leafValues>
            5.6894803047180176e-01 -5.0249171257019043e-01
            7.7352321147918701e-01 -2.3490463197231293e-01</leafValues></_>
        <_>
          <internalNodes>
            1 2 842 6.1166817322373390e-03 0 -1 503
            1.7120381817221642e-03 -2 -3 1541 2.2902798373252153e-03</internalNodes>
          <leafValues>
            -4.2743426561355591e-01 5.5972552299499512e-01
            7.4039596319198608e-01 -4.2861822247505188e-01</leafValues></_>
        <_>
          <internalNodes>
            1 2 405 -2.3290500976145267e-03 0 -1 1217
            1.3585842680186033e-03 -2 -3 1815 2.3278705775737762e-02</internalNodes>
          <leafValues>
            7.3165905475616455e-01 -9.0570193529129028e-01
            -3.4304365515708923e-01 5.4371106624603271e-01</leafValues></_>
        <_>
          <internalNodes>
            1 2 833 -3.4694373607635498e-03 0 -1 1186
            4.3605091050267220e-03 -2 -3 437 7.5904047116637230e-03</internalNodes>
          <leafValues>
            6.4053028821945190e-01 -3.7448105216026306e-01
            -2.9225799441337585e-01 5.7607287168502808e-01</leafValues></_>
        <_>
          <internalNodes>
            1 2 527 2.3115514777600765e-03 0 -1 1129
            2.1832467609783635e-05 -2 -3 1202 -1.4522282872349024e-03</internalNodes>
          <leafValues>
            -6.4094346761703491e-01 6.3288666307926178e-02
            -7.6583164930343628e-01 6.5222787857055664e-01</leafValues></_>
        <_>
          <internalNodes>
            1 2 1828 -1.6465868611703627e-05 0 -1 1372
            -5.1325466483831406e-03 -2 -3 970 9.3553289771080017e-02</internalNodes>
          <leafValues>
            -6.7523366212844849e-01 3.7166592478752136e-01
            -5.4193115234375000e-01 2.7720227837562561e-01</leafValues></_>
        <_>
          <internalNodes>
            1 2 364 1.9708620384335518e-03 0 -1 214
            -3.2494319602847099e-03 -2 -3 1411 1.8826299346983433e-03</internalNodes>
          <leafValues>
            3.7081977725028992e-01 -3.5197764635086060e-01
            6.3169598579406738e-01 -1.</leafValues></_>
        <_>
          <internalNodes>
            1 2 1872 1.4247074723243713e-02 0 -1 294
            4.0699602686800063e-04 -2 -3 1161 1.3048324733972549e-02</internalNodes>
          <leafValues>
            -3.7316310405731201e-01 2.5765183568000793e-01
            6.0343050956726074e-01 -4.9508276581764221e-01</leafValues></_></weakClassifiers></_>
    <!-- stage 3 -->
    <_>
      <maxWeakCount>12</maxWeakCount>
      <stageThreshold>-2.1321079730987549e+00</stageThreshold>
      <weakClassifiers>
        <_>
          <internalNodes>
            1 2 1940 -3.5178527235984802e-02 0 -1 1780
            7.3443204164505005e-02 -2 -3 1533 -3.4996024623978883e-05</internalNodes>
          <leafValues>
            -1.2180890142917633e-01 7.4696892499923706e-01
            -2.8641572594642639e-01 -7.9965972900390625e-01</leafValues></_>
        <_>
          <internalNodes>
            1 2 1538 -5.1404279656708241e-03 0 -1 1228
            -2.9427539557218552e-02 -2 -3 1411 1.0684283915907145e-03</internalNodes>
          <leafValues>
            2.3092240095138550e-01 -8.2215332984924316e-01
            2.2401984035968781e-01 -9.1011017560958862e-01</leafValues></_>
        <_>
          <internalNodes>
            1 2 634 1.4870371669530869e-03 0 -1 206
            -5.2275876514613628e-03 -2 -3 1345 2.5018630549311638e-03</internalNodes>
          <leafValues>
            4.2062434554100037e-01 -3.6972039937973022e-01
            5.7517349720001221e-01 -7.5598794221878052e-01</leafValues></_>
        <_>
          <internalNodes>
            1 2 1499 -3.1403391622006893e-03 0 -1 852
            4.6401932835578918e-02 -2 -3 699 1.0299762710928917e-02</internalNodes>
          <leafValues>
            -8.4055447578430176e-01 7.3053306341171265e-01
            -7.0998564362525940e-02 6.0486376285552979e-01</leafValues></_>
        <_>
          <internalNodes>
            1 2 716 -1.0297901928424835e-02 0 -1 1422
            1.2959965970367193e-03 -2 -3 604 -7.4640675447881222e-03</internalNodes>
          <leafValues>
            6.6354840993881226e-01 -7.9369807243347168e-01
            4.4799408316612244e-01 -2.9319688677787781e-01</leafValues></_>
        <_>
          <internalNodes>
            1 2 1225 2.7584480121731758e-03 0 -1 1149
            -1.7720900475978851e-02 -2 -3 414 -3.0929690226912498e-02</internalNodes>
          <leafValues>
            -8.0349856615066528e-01 2.1032541990280151e-01
            8.0220788717269897e-01 -7.4698144197463989e-01</leafValues></_>
        <_>
          <internalNodes>
            1 2 364 1.4891368336975574e-03 0 -1 498
            -2.9516569338738918e-03 -2 -3 1556 -3.0469829216599464e-03</internalNodes>
          <leafValues>
            4.3891495466232300e-01 -3.5765454173088074e-01
            -8.4780615568161011e-01 4.7744089365005493e-01</leafValues></_>
        <_>
          <internalNodes>
            1 2 1747 -3.6009474570164457e-05 0 -1 1661
            -2.3639139253646135e-03 -2 -3 1200 2.8252713382244110e-03</internalNodes>
          <leafValues>
            -8.2350075244903564e-01 2.6271826028823853e-01
            -2.5094160437583923e-01 -8.5151225328445435e-01</leafValues></_>
        <_>
          <internalNodes>
            1 2 565 1.0290881618857384e-02 0 -1 548
            -1.1708109639585018e-02 -2 -3 784 -1.9867883529514074e-03</internalNodes>
          <leafValues>
            4.7944331169128418e-01 -2.9035472869873047e-01
            -5.1726019382476807e-01 5.9269160032272339e-01</leafValues></_>
        <_>
          <internalNodes>
            1 2 1367 3.2314204145222902e-03 0 -1 1703
            2.3716568946838379e-02 -2 -3 811 -1.7029715701937675e-02</internalNodes>
          <leafValues>
            -1.1188437044620514e-01 3.5840955376625061e-01
            6.5460360050201416e-01 -9.5209884643554688e-01</leafValues></_>
        <_>
          <internalNodes>
            1 2 1734 1.0330239310860634e-02 0 -1 1639
            9.0502016246318817e-03 -2 -3 1760 2.6596374809741974e-03</internalNodes>
          <leafValues>
            -4.5250776410102844e-01 1.4704151451587677e-01
            4.4701912999153137e-01 -8.5555475950241089e-01</leafValues></_>
        <_>
          <internalNodes>
            1 2 987 2.3087338195182383e-04 0 -1 812
            -2.1883403882384300e-02 -2 -3 951 -3.1364977359771729e-02</internalNodes>
          <leafValues>
            2.8300821781158447e-01 -4.2546132206916809e-01
            -7.4390870332717896e-01 2.8971910476684570e-01</leafValues></_></weakClassifiers></_>
    <!-- stage 4 -->
    <_>
      <maxWeakCount>13</maxWeakCount>
      <stageThreshold>-2.1485424041748047e+00</stageThreshold>
      <weakClassifiers>
        <_>
          <internalNodes>
            1 2 861 9.4942450523376465e-03 0 -1 735
            4.4963248074054718e-03 -2 -3 1381 -2.0419942302396521e-05</internalNodes>
          <leafValues>
            -5.8125591278076172e-01 4.1040462255477905e-01
            7.5157892704010010e-01 -3.8064515590667725e-01</leafValues></_>
        <_>
          <internalNodes>
            1 2 375 8.2337192725390196e-04 0 -1 391
            -3.1311898492276669e-03 -2 -3 1533 -1.7314234355580993e-05</internalNodes>
          <leafValues>
            4.8597323894500732e-01 -4.1725292801856995e-01
            6.4360380172729492e-01 -2.2444443404674530e-01</leafValues></_>
        <_>
          <internalNodes>
            1 2 1741 -1.7286918591707945e-05 0 -1 1179
            -4.5128189958631992e-03 -2 -3 1071 9.3371253460645676e-03</internalNodes>
          <leafValues>
            -3.8973256945610046e-01 3.4538456797599792e-01
            -5.9339392185211182e-01 4.8401230573654175e-01</leafValues></_>
        <_>
          <internalNodes>
            1 2 471 -1.7389420419931412e-02 0 -1 1340
            5.8009792119264603e-03 -2 -3 593 5.2662095986306667e-03</internalNodes>
          <leafValues>
            5.8650380373001099e-01 -3.2046318054199219e-01
            -3.8985580205917358e-01 5.3536301851272583e-01</leafValues></_>
        <_>
          <internalNodes>
            1 2 1547 -1.7369735360261984e-05 0 -1 1406
            -2.9771500267088413e-03 -2 -3 1224 -4.3661897507263348e-05</internalNodes>
          <leafValues>
            -4.6189823746681213e-01 3.6991667747497559e-01
            -1.1899933964014053e-01 -7.7669727802276611e-01</leafValues></_>
        <_>
          <internalNodes>
            1 2 374 1.7460929229855537e-03 0 -1 365
            1.1818532366305590e-03 -2 -3 509 2.2327578335534781e-05</internalNodes>
          <leafValues>
            -3.4678095579147339e-01 4.6307608485221863e-01
            3.1143687665462494e-03 7.3681312799453735e-01</leafValues></_>
        <_>
          <internalNodes>
            1 2 833 -7.5260698795318604e-03 0 -1 327
            -5.4045133292675018e-02 -2 -3 698 -4.7708540223538876e-03</internalNodes>
          <leafValues>
            -5.8916139602661133e-01 6.2745082378387451e-01
            4.4064182043075562e-01 -2.5077807903289795e-01</leafValues></_>
        <_>
          <internalNodes>
            1 2 578 -2.0017595961689949e-03 0 -1 791
            7.8010456636548042e-03 -2 -3 727 4.2451396584510803e-03</internalNodes>
          <leafValues>
            6.1164551973342896e-01 -5.1514816284179688e-01
            -3.0301073193550110e-01 2.9813796281814575e-01</leafValues></_>
        <_>
          <internalNodes>
            1 2 1558 -2.5836299173533916e-03 0 -1 666
            -4.2602710425853729e-02 -2 -3 1532 1.6682737623341382e-05</internalNodes>
          <leafValues>
            6.8259161710739136e-01 -8.0543237924575806e-01
            -2.5227159261703491e-01 2.9025688767433167e-01</leafValues></_>
        <_>
          <internalNodes>
            1 2 316 4.0206763148307800e-01 0 -1 1653
            -2.2404652554541826e-03 -2 -3 1787 -8.7884506210684776e-03</internalNodes>
          <leafValues>
            -8.0246472358703613e-01 1.5487761795520782e-01
            5.7948511838912964e-01 -7.6325863599777222e-01</leafValues></_>
        <_>
          <internalNodes>
            1 2 669 1.1130284983664751e-03 0 -1 675
            -5.3480435162782669e-03 -2 -3 513 -1.0628537274897099e-02</internalNodes>
          <leafValues>
            5.0306463241577148e-01 -2.9248070716857910e-01
            -8.0657392740249634e-01 5.4516983032226562e-01</leafValues></_>
        <_>
          <internalNodes>
            1 2 1554 2.0886855199933052e-03 0 -1 1920
            -3.5815708339214325e-02 -2 -3 798 -4.7449823468923569e-03</internalNodes>
          <leafValues>
            6.7173755168914795e-01 5.5118291638791561e-03
            6.0050392150878906e-01 -7.5242388248443604e-01</leafValues></_>
        <_>
          <internalNodes>
            1 2 198 -3.1150975264608860e-03 0 -1 1172
            3.5867490805685520e-03 -2 -3 60 5.1505016162991524e-03</internalNodes>
          <leafValues>
            5.5593913793563843e-01 -6.8925708532333374e-01
            -3.3610427379608154e-01 3.1541147828102112e-01</leafValues></_></weakClassifiers></_>
    <!-- stage 5 -->
    <_>
      <maxWeakCount>16</maxWeakCount>
      <stageThreshold>-2.1771171092987061e+00</stageThreshold>
      <weakClassifiers>
        <_>
          <internalNodes>
            1 2 449 7.0776686072349548e-02 0 -1 183
            -1.4221275225281715e-02 -2 -3 159 4.4900968670845032e-02</internalNodes>
          <leafValues>
            8.1902891397476196e-02 -5.6664836406707764e-01
            -4.6591708064079285e-01 5.7001829147338867e-01</leafValues></_>
        <_>
          <internalNodes>
            1 2 1396 -3.5411245335126296e-05 0 -1 1386
            -3.7890214007347822e-03 -2 -3 1233 -4.3021191231673583e-05</internalNodes>
          <leafValues>
            -5.1797038316726685e-01 3.0871427059173584e-01
            -2.3608791828155518e-01 -8.2889598608016968e-01</leafValues></_>
        <_>
          <internalNodes>
            1 2 282 2.2305799648165703e-03 0 -1 272
            2.0560605917125940e-03 -2 -3 1380 1.1258024023845792e-03</internalNodes>
          <leafValues>
            -2.9309806227684021e-01 4.7601914405822754e-01
            6.6290277242660522e-01 -4.3099755048751831e-01</leafValues></_>
        <_>
          <internalNodes>
            1 2 1729 -3.4783413866534829e-05 0 -1 1149
            1.0148791596293449e-02 -2 -3 1395 3.8318059523589909e-05</internalNodes>
          <leafValues>
            3.1670024991035461e-01 -6.2831920385360718e-01
            -6.7997789382934570e-01 -5.4614599794149399e-02</leafValues></_>
        <_>
          <internalNodes>
            1 2 1051 6.3186753541231155e-03 0 -1 1048
            -3.5049938596785069e-03 -2 -3 1101 -1.9530629739165306e-02</internalNodes>
          <leafValues>
            4.0806418657302856e-01 -2.9115054011344910e-01
            -6.2728875875473022e-01 5.9236764907836914e-01</leafValues></_>
        <_>
          <internalNodes>
            1 2 1530 -3.5042961826547980e-05 0 -1 1360
            -1.3623563572764397e-03 -2 -3 1496 -4.2192674300167710e-05</internalNodes>
          <leafValues>
            -6.2823355197906494e-01 2.7553451061248779e-01
            -1.0442249476909637e-01 -6.9322168827056885e-01</leafValues></_>
        <_>
          <internalNodes>
            1 2 486 -1.9698655232787132e-03 0 -1 1374
            -1.1487420648336411e-02 -2 -3 213 -2.4062781594693661e-03</internalNodes>
          <leafValues>
            -7.5722002983093262e-01 5.2034699916839600e-01
            3.3453342318534851e-01 -3.3503592014312744e-01</leafValues></_>
        <_>
          <internalNodes>
            1 2 965 -2.4056246504187584e-02 0 -1 653
            -1.0580620169639587e-01 -2 -3 1936 4.4037075713276863e-03</internalNodes>
          <leafValues>
            2.2130908071994781e-01 -8.6700701713562012e-01
            -8.0249853432178497e-02 4.2854622006416321e-01</leafValues></_>
        <_>
          <internalNodes>
            1 2 1944 -2.7018750552088022e-03 0 -1 1385
            6.6583771258592606e-03 -2 -3 532 -4.2469287291169167e-03</internalNodes>
          <leafValues>
            5.6112182140350342e-01 -7.1580296754837036e-01
            4.9212011694908142e-01 -2.1038115024566650e-01</leafValues></_>
        <_>
          <internalNodes>
            1 2 1327 -1.0071801021695137e-02 0 -1 809
            -2.8974797576665878e-02 -2 -3 650 1.5490693971514702e-02</internalNodes>
          <leafValues>
            8.0410979688167572e-02 -8.2094520330429077e-01
            1.4993281662464142e-01 -6.7643672227859497e-01</leafValues></_>
        <_>
          <internalNodes>
            1 2 573 -4.3252874165773392e-03 0 -1 1334
            5.0235809758305550e-03 -2 -3 564 7.4298614636063576e-03</internalNodes>
          <leafValues>
            4.9994185566902161e-01 -7.3714166879653931e-01
            -2.8419035673141479e-01 3.0002358555793762e-01</leafValues></_>
        <_>
          <internalNodes>
            1 2 635 6.7048618802800775e-04 0 -1 391
            2.7851916383951902e-03 -2 -3 1182 9.0522738173604012e-04</internalNodes>
          <leafValues>
            -2.6380479335784912e-01 4.2638057470321655e-01
            4.1428864002227783e-01 -6.9743800163269043e-01</leafValues></_>
        <_>
          <internalNodes>
            1 2 410 3.3978763967752457e-03 0 -1 1461
            -3.0280849896371365e-03 -2 -3 1540 7.7875092392787337e-04</internalNodes>
          <leafValues>
            5.5058801174163818e-01 -1.8437542021274567e-01
            5.3339165449142456e-01 -9.0065151453018188e-01</leafValues></_>
        <_>
          <internalNodes>
            1 2 1518 2.1805977448821068e-03 0 -1 1660
            -3.9269732951652259e-05 -2 -3 946 8.3225384354591370e-02</internalNodes>
          <leafValues>
            2.1207872033119202e-01 -2.9955542087554932e-01
            -8.9667415618896484e-01 1.8194405734539032e-01</leafValues></_>
        <_>
          <internalNodes>
            1 2 1211 -6.1070006340742111e-03 0 -1 224
            -1.3282690942287445e-01 -2 -3 895 6.7108068615198135e-03</internalNodes>
          <leafValues>
            5.4915153980255127e-01 -7.5830692052841187e-01
            -6.9800153374671936e-02 4.5440632104873657e-01</leafValues></_>
        <_>
          <internalNodes>
            1 2 877 -9.7203645855188370e-03 0 -1 803
            -7.0039778947830200e-03 -2 -3 1641 1.1339251883327961e-02</internalNodes>
          <leafValues>
            -7.3434412479400635e-01 5.1233047246932983e-01
            -2.5582933425903320e-01 2.4426046013832092e-01</leafValues></_></weakClassifiers></_>
    <!-- stage 6 -->
    <_>
      <maxWeakCount>18</maxWeakCount>
      <stageThreshold>-2.2200427055358887e+00</stageThreshold>
      <weakClassifiers>
        <_>
          <internalNodes>
            1 2 344 5.7159595191478729e-02 0 -1 1906
            -4.5291948481462896e-05 -2 -3 113 9.5210611820220947e-02</internalNodes>
          <leafValues>
            -2.3549945652484894e-01 -6.7151832580566406e-01
            -5.4789274930953979e-01 7.4385631084442139e-01</leafValues></_>
        <_>
          <internalNodes>
            1 2 1652 -3.0108238206594251e-05 0 -1 1160
            4.3549239635467529e-03 -2 -3 529 5.6967731565237045e-02</internalNodes>
          <leafValues>
            2.0188970863819122e-01 -7.6188546419143677e-01
            -6.3037919998168945e-01 1.4872968196868896e-01</leafValues></_>
        <_>
          <internalNodes>
            1 2 861 1.0597495362162590e-02 0 -1 861
            -7.8506246209144592e-03 -2 -3 1379 7.5580494012683630e-04</internalNodes>
          <leafValues>
            3.6609321832656860e-01 -2.5891986489295959e-01
            6.1617702245712280e-01 -8.0734658241271973e-01</leafValues></_>
        <_>
          <internalNodes>
            1 2 1408 -3.7544014048762619e-05 0 -1 1173
            -5.6318226270377636e-03 -2 -3 169 3.1826949119567871e-01</internalNodes>
          <leafValues>
            -5.4562300443649292e-01 2.1592991054058075e-01
            -6.4102667570114136e-01 2.0043180882930756e-01</leafValues></_>
        <_>
          <internalNodes>
            1 2 276 -8.6852153763175011e-03 0 -1 1542
            -7.4390857480466366e-03 -2 -3 294 1.0525875259190798e-03</internalNodes>
          <leafValues>
            -6.9404184818267822e-01 4.2747306823730469e-01
            -3.6138325929641724e-01 2.9092222452163696e-01</leafValues></_>
        <_>
          <internalNodes>
            1 2 1364 5.6649278849363327e-03 0 -1 1126
            5.1950830966234207e-03 -2 -3 1738 5.9813861298607662e-05</internalNodes>
          <leafValues>
            2.4626737833023071e-01 -3.9952021837234497e-01
            -7.8626286983489990e-01 -2.2637096047401428e-01</leafValues></_>
        <_>
          <internalNodes>
            1 2 486 1.8620749469846487e-03 0 -1 487
            -2.4579642340540886e-03 -2 -3 1368 1.2669343501329422e-02</internalNodes>
          <leafValues>
            2.3008224368095398e-01 -3.4317353367805481e-01
            4.6729820966720581e-01 -6.9795954227447510e-01</leafValues></_>
        <_>
          <internalNodes>
            1 2 1806 1.8671108409762383e-02 0 -1 1829
            -1.5623349463567138e-03 -2 -3 1397 -4.4110485760029405e-05</internalNodes>
          <leafValues>
            1.4897449314594269e-01 -3.8325351476669312e-01
            4.6345105767250061e-01 -4.6755093336105347e-01</leafValues></_>
        <_>
          <internalNodes>
            1 2 959 3.5483052488416433e-03 0 -1 717
            -1.0995690710842609e-02 -2 -3 1398 9.9823786877095699e-04</internalNodes>
          <leafValues>
            5.0427740812301636e-01 -5.1459126174449921e-02
            -7.9874950647354126e-01 -3.6103773862123489e-02</leafValues></_>
        <_>
          <internalNodes>
            1 2 737 4.3909233063459396e-03 0 -1 577
            -8.1232171505689621e-03 -2 -3 1195 8.4996840450912714e-04</internalNodes>
          <leafValues>
            1.8340393900871277e-01 -3.3714860677719116e-01
            4.1513177752494812e-01 -6.8013733625411987e-01</leafValues></_>
        <_>
          <internalNodes>
            1 2 1693 9.2778533697128296e-02 0 -1 1433
            -4.0991988033056259e-02 -2 -3 1177 -1.0415736585855484e-02</internalNodes>
          <leafValues>
            2.8397774696350098e-01 -3.0994531512260437e-01
            -2.7161958813667297e-01 5.4688519239425659e-01</leafValues></_>
        <_>
          <internalNodes>
            1 2 1321 -1.4990564435720444e-02 0 -1 815
            -6.7212972790002823e-03 -2 -3 1632 1.7952531576156616e-02</internalNodes>
          <leafValues>
            2.4416708946228027e-01 -7.7680802345275879e-01
            -7.1936897933483124e-02 3.8244336843490601e-01</leafValues></_>
        <_>
          <internalNodes>
            1 2 988 6.3283569179475307e-03 0 -1 673
            1.2116298079490662e-02 -2 -3 993 -4.3552927672863007e-03</internalNodes>
          <leafValues>
            -3.0685606598854065e-01 2.0967419445514679e-01
            -1.8787468969821930e-01 5.3094226121902466e-01</leafValues></_>
        <_>
          <internalNodes>
            1 2 903 2.2788729984313250e-03 0 -1 693
            -8.3279311656951904e-03 -2 -3 926 3.7724995054304600e-03</internalNodes>
          <leafValues>
            4.2872798442840576e-01 -3.0294832587242126e-01
            3.8475733995437622e-01 -7.1270120143890381e-01</leafValues></_>
        <_>
          <internalNodes>
            1 2 1520 -2.0983908325433731e-03 0 -1 939
            -1.0159085690975189e-01 -2 -3 1176 3.5704274196177721e-03</internalNodes>
          <leafValues>
            2.9658466577529907e-01 -8.6882996559143066e-01
            1.2989518046379089e-01 -6.4798635244369507e-01</leafValues></_>
        <_>
          <internalNodes>
            1 2 503 1.8315501511096954e-03 0 -1 624
            1.8538897857069969e-03 -2 -3 1515 -5.3304713219404221e-04</internalNodes>
          <leafValues>
            -2.5403574109077454e-01 2.4921308457851410e-01
            4.3296551704406738e-01 -4.2894026637077332e-01</leafValues></_>
        <_>
          <internalNodes>
            1 2 978 3.3891517668962479e-03 0 -1 835
            1.4232834801077843e-02 -2 -3 1280 -1.5136752277612686e-02</internalNodes>
          <leafValues>
            -1.2828686274588108e-02 5.6842404603958130e-01
            3.3768966794013977e-01 -7.7077978849411011e-01</leafValues></_>
        <_>
          <internalNodes>
            1 2 1689 1.7206893971888348e-05 0 -1 677
            4.7134868800640106e-03 -2 -3 902 -1.8520609010010958e-03</internalNodes>
          <leafValues>
            -3.9428153634071350e-01 2.0091837644577026e-01
            5.0326132774353027e-01 1.9835582934319973e-03</leafValues></_></weakClassifiers></_>
    <!-- stage 7 -->
    <_>
      <maxWeakCount>19</maxWeakCount>
      <stageThreshold>-2.0268304347991943e+00</stageThreshold>
      <weakClassifiers>
        <_>
          <internalNodes>
            1 2 163 1.1605791747570038e-01 0 -1 678
            -2.0103627815842628e-02 -2 -3 111 4.5904457569122314e-02</internalNodes>
          <leafValues>
            1.2470024079084396e-01 -5.3098237514495850e-01
            -6.0000002384185791e-01 6.1355668306350708e-01</leafValues></_>
        <_>
          <internalNodes>
            1 2 1397 -3.5585879231803119e-05 0 -1 495
            7.6703995000571012e-04 -2 -3 1886 -4.4091248128097504e-05</internalNodes>
          <leafValues>
            -1.0215163230895996e-01 4.3731153011322021e-01
            -3.1383782625198364e-01 -8.2165837287902832e-01</leafValues></_>
        <_>
          <internalNodes>
            1 2 1647 3.7930461985524744e-05 0 -1 1553
            5.6847871746867895e-04 -2 -3 1125 -4.3159379856660962e-04</internalNodes>
          <leafValues>
            -6.9570893049240112e-01 -6.6112272441387177e-02
            -5.6209152936935425e-01 3.1754752993583679e-01</leafValues></_>
        <_>
          <internalNodes>
            1 2 494 1.5555381542071700e-03 0 -1 364
            -1.5018738340586424e-03 -2 -3 1358 3.1554587185382843e-03</internalNodes>
          <leafValues>
            2.6491001248359680e-01 -3.5473474860191345e-01
            4.7635522484779358e-01 -4.3221753835678101e-01</leafValues></_>
        <_>
          <internalNodes>
            1 2 546 -4.8819538205862045e-03 0 -1 1540
            8.6006819037720561e-04 -2 -3 559 3.7522236816585064e-03</internalNodes>
          <leafValues>
            5.3773790597915649e-01 -8.9807379245758057e-01
            -1.9277717173099518e-01 3.7923538684844971e-01</leafValues></_>
        <_>
          <internalNodes>
            1 2 1554 -2.5756645482033491e-03 0 -1 675
            1.3450982980430126e-02 -2 -3 635 1.0514743626117706e-03</internalNodes>
          <leafValues>
            -8.8656067848205566e-01 3.8238981366157532e-01
            -6.6147580742835999e-02 4.0534707903862000e-01</leafValues></_>
        <_>
          <internalNodes>
            1 2 1382 -3.8587677408941090e-05 0 -1 1391
            -2.4221267085522413e-03 -2 -3 1644 -4.3608466512523592e-05</internalNodes>
          <leafValues>
            -7.0707428455352783e-01 1.7543314397335052e-01
            -9.9767200648784637e-02 -6.3273793458938599e-01</leafValues></_>
        <_>
          <internalNodes>
            1 2 1919 -1.6205271705985069e-02 0 -1 981
            -2.4306800696649589e-05 -2 -3 1825 1.4541285112500191e-02</internalNodes>
          <leafValues>
            4.7557055950164795e-01 -2.4383616447448730e-01
            -3.3046337962150574e-01 2.7313622832298279e-01</leafValues></_>
        <_>
          <internalNodes>
            1 2 1247 3.2807993702590466e-03 0 -1 612
            2.2844206541776657e-03 -2 -3 1675 -1.6423556953668594e-03</internalNodes>
          <leafValues>
            -3.1341037154197693e-01 1.8198692798614502e-01
            -6.1640381813049316e-01 3.5468715429306030e-01</leafValues></_>
        <_>
          <internalNodes>
            1 2 790 -1.2309500947594643e-02 0 -1 615
            -3.3398240804672241e-02 -2 -3 470 -1.1403474956750870e-02</internalNodes>
          <leafValues>
            2.4820116162300110e-01 -6.9939619302749634e-01
            3.5720077157020569e-01 -9.7378782927989960e-02</leafValues></_>
        <_>
          <internalNodes>
            1 2 738 7.1294461376965046e-03 0 -1 888
            1.9059879705309868e-03 -2 -3 786 4.5031053014099598e-03</internalNodes>
          <leafValues>
            -2.8055122494697571e-01 3.2854008674621582e-01
            4.4716581702232361e-01 -6.2877738475799561e-01</leafValues></_>
        <_>
          <internalNodes>
            1 2 1065 1.7077461816370487e-03 0 -1 641
            1.6975030303001404e-03 -2 -3 1733 -2.1597058512270451e-03</internalNodes>
          <leafValues>
            -2.4918967485427856e-01 2.8886339068412781e-01
            -5.6950527429580688e-01 4.5771333575248718e-01</leafValues></_>
        <_>
          <internalNodes>
            1 2 1660 -4.0468465158483014e-05 0 -1 780
            1.1409971863031387e-02 -2 -3 1717 -1.4297306188382208e-04</internalNodes>
          <leafValues>
            1.7390187084674835e-01 -7.2142189741134644e-01
            -4.1797071695327759e-02 -6.0086196660995483e-01</leafValues></_>
        <_>
          <internalNodes>
            1 2 1663 -2.2532152943313122e-03 0 -1 300
            2.5471970438957214e-03 -2 -3 1923 -1.1102701537311077e-02</internalNodes>
          <leafValues>
            -7.6744079589843750e-01 9.2200748622417450e-02
            2.7201148867607117e-01 -1.3804376125335693e-01</leafValues></_>
        <_>
          <internalNodes>
            1 2 374 -2.2392689716070890e-03 0 -1 1535
            -4.3633943423628807e-03 -2 -3 388 1.2436397373676300e-03</internalNodes>
          <leafValues>
            -6.3407981395721436e-01 4.4478172063827515e-01
            -2.6031330227851868e-01 2.9421094059944153e-01</leafValues></_>
        <_>
          <internalNodes>
            1 2 1276 5.7732993736863136e-03 0 -1 1253
            -1.0606550425291061e-01 -2 -3 1401 1.2107405345886946e-03</internalNodes>
          <leafValues>
            4.0530189871788025e-01 -1.6216798126697540e-01
            6.5590441226959229e-01 -6.1713701486587524e-01</leafValues></_>
        <_>
          <internalNodes>
            1 2 319 4.2399249970912933e-02 0 -1 901
            4.8562549636699259e-05 -2 -3 702 -6.6613969393074512e-03</internalNodes>
          <leafValues>
            -2.6270285248756409e-01 1.2739139795303345e-01
            -2.7732393145561218e-01 5.3015029430389404e-01</leafValues></_>
        <_>
          <internalNodes>
            1 2 1858 1.2658392079174519e-03 0 -1 1462
            -4.4799153693020344e-04 -2 -3 413 1.7238017171621323e-02</internalNodes>
          <leafValues>
            3.5570609569549561e-01 -6.3744202256202698e-02
            -8.0905240774154663e-01 4.6670606732368469e-01</leafValues></_>
        <_>
          <internalNodes>
            1 2 1778 7.9241931438446045e-02 0 -1 947
            4.2690073314588517e-05 -2 -3 154 7.6082982122898102e-03</internalNodes>
          <leafValues>
            -3.0287453532218933e-01 7.8868359327316284e-02
            5.3635686635971069e-01 -7.4819535017013550e-02</leafValues></_></weakClassifiers></_>
    <!-- stage 8 -->
    <_>
      <maxWeakCount>23</maxWeakCount>
      <stageThreshold>-1.9467238187789917e+00</stageThreshold>
      <weakClassifiers>
        <_>
          <internalNodes>
            1 2 634 1.9620836246758699e-03 0 -1 1918
            1.2130087241530418e-02 -2 -3 473 8.5811629891395569e-02</internalNodes>
          <leafValues>
            -5.6518232822418213e-01 -1.0806074738502502e-01
            -1.3387326896190643e-01 6.6785287857055664e-01</leafValues></_>
        <_>
          <internalNodes>
            1 2 198 -4.2078960686922073e-03 0 -1 254
            -4.5012030750513077e-02 -2 -3 195 2.5173965841531754e-03</internalNodes>
          <leafValues>
            7.5813734531402588e-01 1.5513762831687927e-01
            -3.2658103108406067e-01 3.2516622543334961e-01</leafValues></_>
        <_>
          <internalNodes>
            1 2 698 8.8999345898628235e-03 0 -1 698
            -3.5641484428197145e-03 -2 -3 1018 1.0149931907653809e-01</internalNodes>
          <leafValues>
            2.9764491319656372e-01 -2.1109865605831146e-01
            2.2622272372245789e-01 8.1506150960922241e-01</leafValues></_>
        <_>
          <internalNodes>
            1 2 1543 -4.0839178836904466e-05 0 -1 1189
            7.2357212193310261e-03 -2 -3 1868 -1.6681263223290443e-03</internalNodes>
          <leafValues>
            1.7064850032329559e-01 -5.2306383848190308e-01
            -9.7589336335659027e-02 -7.2555285692214966e-01</leafValues></_>
        <_>
          <internalNodes>
            1 2 1326 -8.8852047920227051e-03 0 -1 668
            -4.4115476310253143e-02 -2 -3 132 -3.7941311020404100e-03</internalNodes>
          <leafValues>
            -6.8599902093410492e-02 -8.2068794965744019e-01
            3.8322359323501587e-01 -4.3952230364084244e-02</leafValues></_>
        <_>
          <internalNodes>
            1 2 641 7.8100571408867836e-04 0 -1 778
            -3.6119972355663776e-04 -2 -3 1339 1.7271895194426179e-03</internalNodes>
          <leafValues>
            4.5838650315999985e-02 -4.5123404264450073e-01
            3.1783524155616760e-01 -7.3521095514297485e-01</leafValues></_>
        <_>
          <internalNodes>
            1 2 395 -1.0945226997137070e-02 0 -1 110
            -1.4989074319601059e-02 -2 -3 1837 3.1795133836567402e-03</internalNodes>
          <leafValues>
            -1.2431903742253780e-02 -8.1136369705200195e-01
            -1.0730820894241333e-01 3.2297617197036743e-01</leafValues></_>
        <_>
          <internalNodes>
            1 2 1817 -5.0895620137453079e-02 0 -1 1522
            -1.1283949017524719e-02 -2 -3 1970 5.2331844344735146e-03</internalNodes>
          <leafValues>
            -7.3602789640426636e-01 4.6675121784210205e-01
            -2.6802799105644226e-01 3.2758551836013794e-01</leafValues></_>
        <_>
          <internalNodes>
            1 2 527 2.9628407210111618e-03 0 -1 633
            -3.9399717934429646e-05 -2 -3 648 -9.8809991031885147e-03</internalNodes>
          <leafValues>
            1.3316760957241058e-01 -3.2887655496597290e-01
            -5.0520360469818115e-01 4.4919842481613159e-01</leafValues></_>
        <_>
          <internalNodes>
            1 2 573 -3.1724451109766960e-03 0 -1 544
            1.3063937425613403e-01 -2 -3 458 -4.9750180914998055e-03</internalNodes>
          <leafValues>
            4.0286153554916382e-01 -5.9953093528747559e-01
            4.0831160545349121e-01 -2.5679433345794678e-01</leafValues></_>
        <_>
          <internalNodes>
            1 2 1673 -2.4147699587047100e-03 0 -1 1569
            -1.8867464736104012e-02 -2 -3 781 5.0663631409406662e-03</internalNodes>
          <leafValues>
            8.3271697163581848e-02 -7.2974854707717896e-01
            -8.4277562797069550e-02 2.9474741220474243e-01</leafValues></_>
        <_>
          <internalNodes>
            1 2 1702 -2.9953218996524811e-02 0 -1 121
            -3.9373852312564850e-02 -2 -3 712 1.3424461707472801e-02</internalNodes>
          <leafValues>
            7.7644413709640503e-01 1.2786896526813507e-01
            -3.0733856558799744e-01 8.1185571849346161e-02</leafValues></_>
        <_>
          <internalNodes>
            1 2 1547 -3.3865740988403559e-05 0 -1 962
            -9.3283746391534805e-03 -2 -3 1512 -3.5912442399421707e-05</internalNodes>
          <leafValues>
            -6.8690556287765503e-01 1.6168706119060516e-01
            -7.0508465170860291e-02 -7.0203357934951782e-01</leafValues></_>
        <_>
          <internalNodes>
            1 2 1976 -3.1065596267580986e-03 0 -1 1391
            2.5584581308066845e-03 -2 -3 754 1.6318762209266424e-03</internalNodes>
          <leafValues>
            3.7731882929801941e-01 -8.4767246246337891e-01
            -2.6010406017303467e-01 1.7296037077903748e-01</leafValues></_>
        <_>
          <internalNodes>
            1 2 753 -6.2210056930780411e-03 0 -1 786
            -5.9716086834669113e-03 -2 -3 1450 -2.2531230933964252e-03</internalNodes>
          <leafValues>
            -5.6575703620910645e-01 5.5541670322418213e-01
            2.0532907545566559e-01 -2.0585802197456360e-01</leafValues></_>
        <_>
          <internalNodes>
            1 2 1341 -9.4334799796342850e-03 0 -1 2000
            -1.3195673003792763e-02 -2 -3 1221 1.2969595845788717e-03</internalNodes>
          <leafValues>
            2.9280596971511841e-01 -8.1176936626434326e-01
            1.0619138181209564e-01 -5.5554538965225220e-01</leafValues></_>
        <_>
          <internalNodes>
            1 2 243 -1.4848639257252216e-03 0 -1 1501
            1.2351681943982840e-03 -2 -3 1267 -7.7991657890379429e-03</internalNodes>
          <leafValues>
            -2.1867805719375610e-01 -8.1857305765151978e-01
            5.0349289178848267e-01 -3.9683948270976543e-03</leafValues></_>
        <_>
          <internalNodes>
            1 2 494 1.2407115427777171e-03 0 -1 502
            -9.4919819384813309e-03 -2 -3 1185 -1.2285326374694705e-03</internalNodes>
          <leafValues>
            2.2704619169235229e-01 -2.5824317336082458e-01
            -5.0149661302566528e-01 3.3946657180786133e-01</leafValues></_>
        <_>
          <internalNodes>
            1 2 387 2.6805209927260876e-03 0 -1 1508
            4.2465087026357651e-03 -2 -3 1175 6.9170352071523666e-04</internalNodes>
          <leafValues>
            -2.6138618588447571e-01 1.6878388822078705e-01
            4.5778870582580566e-01 -4.3422135710716248e-01</leafValues></_>
        <_>
          <internalNodes>
            1 2 388 6.3708436209708452e-04 0 -1 495
            7.1404187474399805e-04 -2 -3 299 2.1189112885622308e-05</internalNodes>
          <leafValues>
            -2.6559370756149292e-01 1.8820254504680634e-01
            -2.8315755724906921e-01 3.8180446624755859e-01</leafValues></_>
        <_>
          <internalNodes>
            1 2 1661 -2.0254724659025669e-03 0 -1 140
            -4.9374289810657501e-02 -2 -3 512 2.5500603020191193e-02</internalNodes>
          <leafValues>
            6.6745948791503906e-01 -7.9942077398300171e-01
            8.6363114416599274e-02 -7.2568356990814209e-01</leafValues></_>
        <_>
          <internalNodes>
            1 2 861 -9.1327819973230362e-03 0 -1 714
            -3.4276267979294062e-03 -2 -3 725 -3.9598927833139896e-03</internalNodes>
          <leafValues>
            -3.8655546307563782e-01 4.9752300977706909e-01
            2.4021296203136444e-01 -2.4719852209091187e-01</leafValues></_>
        <_>
          <internalNodes>
            1 2 1041 -5.1802019588649273e-03 0 -1 934
            -3.1085703521966934e-03 -2 -3 403 2.4172426201403141e-03</internalNodes>
          <leafValues>
            -2.3172330856323242e-01 4.9036699533462524e-01
            -1.9185635447502136e-01 2.9826268553733826e-01</leafValues></_></weakClassifiers></_>
    <!-- stage 9 -->
    <_>
      <maxWeakCount>23</maxWeakCount>
      <stageThreshold>-1.9844684600830078e+00</stageThreshold>
      <weakClassifiers>
        <_>
          <internalNodes>
            1 2 262 5.2312843501567841e-02 0 -1 348
            -5.4858587682247162e-03 -2 -3 112 8.3176471292972565e-02</internalNodes>
          <leafValues>
            -2.6167273521423340e-01 -6.5787857770919800e-01
            -4.6517625451087952e-01 5.8181113004684448e-01</leafValues></_>
        <_>
          <internalNodes>
            1 2 1741 -1.5733487089164555e-05 0 -1 1806
            3.4707952290773392e-02 -2 -3 1586 1.8560901284217834e-01</internalNodes>
          <leafValues>
            -1.7409412190318108e-02 5.5419981479644775e-01
            -5.1601278781890869e-01 4.4741833209991455e-01</leafValues></_>
        <_>
          <internalNodes>
            1 2 1656 -2.5758096016943455e-03 0 -1 133
            -2.2446189075708389e-02 -2 -3 571 1.4644087851047516e-01</internalNodes>
          <leafValues>
            1.7733652889728546e-01 -8.4521740674972534e-01
            1.8326786160469055e-01 -3.5911196470260620e-01</leafValues></_>
        <_>
          <internalNodes>
            1 2 1376 2.6181638240814209e-03 0 -1 558
            -1.3499797787517309e-03 -2 -3 1879 -6.2231473624706268e-02</internalNodes>
          <leafValues>
            3.4514737129211426e-01 -8.7851636111736298e-02
            2.8300872445106506e-01 -6.2746948003768921e-01</leafValues></_>
        <_>
          <internalNodes>
            1 2 438 1.7737898975610733e-02 0 -1 695
            -1.6304077580571175e-02 -2 -3 143 2.1717475727200508e-02</internalNodes>
          <leafValues>
            3.0537205934524536e-01 -2.3684085905551910e-01
            4.6353635191917419e-01 -2.1726495027542114e-01</leafValues></_>
        <_>
          <internalNodes>
            1 2 1396 -4.0736656956141815e-05 0 -1 1380
            1.5515888808295131e-03 -2 -3 1752 -1.8002689103013836e-05</internalNodes>
          <leafValues>
            1.6517479717731476e-01 -7.3297590017318726e-01
            -1.2411415576934814e-01 -7.0480525493621826e-01</leafValues></_>
        <_>
          <internalNodes>
            1 2 624 -1.7999839037656784e-03 0 -1 1096
            -1.1546763125807047e-03 -2 -3 624 1.2833680957555771e-03</internalNodes>
          <leafValues>
            -5.7123386859893799e-01 4.5204013586044312e-01
            -3.1471085548400879e-01 2.4350869655609131e-01</leafValues></_>
        <_>
          <internalNodes>
            1 2 1439 -3.6554552614688873e-02 0 -1 1153
            1.2122990563511848e-02 -2 -3 1447 9.7167622298002243e-03</internalNodes>
          <leafValues>
            4.3382903933525085e-01 -9.7453022003173828e-01
            -2.5745594501495361e-01 1.4960102736949921e-01</leafValues></_>
        <_>
          <internalNodes>
            1 2 1288 4.3668554280884564e-04 0 -1 900
            7.3183715343475342e-02 -2 -3 1729 -1.7642736565903760e-05</internalNodes>
          <leafValues>
            -3.7421548366546631e-01 1.2338297069072723e-01
            3.9405781030654907e-01 -1.1197565495967865e-01</leafValues></_>
        <_>
          <internalNodes>
            1 2 893 -7.6941321603953838e-03 0 -1 1619
            -3.7681739777326584e-03 -2 -3 582 -5.5775889195501804e-03</internalNodes>
          <leafValues>
            -7.2847580909729004e-01 4.5495909452438354e-01
            2.5114935636520386e-01 -2.2832159698009491e-01</leafValues></_>
        <_>
          <internalNodes>
            1 2 622 2.7709402143955231e-02 0 -1 485
            -4.0786027908325195e-02 -2 -3 766 6.4580021426081657e-03</internalNodes>
          <leafValues>
            2.0623447000980377e-01 -3.0896708369255066e-01
            -2.9430291056632996e-01 3.8260328769683838e-01</leafValues></_>
        <_>
          <internalNodes>
            1 2 1234 1.5611109556630254e-03 0 -1 1946
            -1.0027584619820118e-02 -2 -3 531 4.2428918182849884e-02</internalNodes>
          <leafValues>
            4.4758445024490356e-01 -3.8648433983325958e-02
            -8.3172798156738281e-01 -6.9656088948249817e-02</leafValues></_>
        <_>
          <internalNodes>
            1 2 978 2.8081494383513927e-03 0 -1 1953
            3.2653603702783585e-03 -2 -3 1223 -1.8711055163294077e-03</internalNodes>
          <leafValues>
            -4.9208886921405792e-02 4.2121714353561401e-01
            -8.8247519731521606e-01 -2.8815180063247681e-01</leafValues></_>
        <_>
          <internalNodes>
            1 2 405 2.4844077415764332e-03 0 -1 813
            2.1286979317665100e-03 -2 -3 305 -1.2371251359581947e-03</internalNodes>
          <leafValues>
            -1.9535756111145020e-01 3.2277923822402954e-01
            -2.4949198961257935e-01 4.3152704834938049e-01</leafValues></_>
        <_>
          <internalNodes>
            1 2 1333 1.8520236480981112e-03 0 -1 793
            3.8227485492825508e-03 -2 -3 1764 -6.1442129313945770e-02</internalNodes>
          <leafValues>
            -9.0783253312110901e-02 2.6643246412277222e-01
            7.4287399649620056e-02 -9.0457969903945923e-01</leafValues></_>
        <_>
          <internalNodes>
            1 2 575 7.6863262802362442e-03 0 -1 550
            -1.2617792002856731e-02 -2 -3 1416 2.9218404088169336e-03</internalNodes>
          <leafValues>
            3.6842674016952515e-01 -2.1753561496734619e-01
            3.3616027235984802e-01 -7.9627680778503418e-01</leafValues></_>
        <_>
          <internalNodes>
            1 2 201 -5.2061304450035095e-02 0 -1 167
            -3.3412564545869827e-02 -2 -3 1525 -1.9320279825478792e-03</internalNodes>
          <leafValues>
            5.7758212089538574e-01 -7.4547362327575684e-01
            -6.1818432807922363e-01 9.4942905008792877e-02</leafValues></_>
        <_>
          <internalNodes>
            1 2 873 5.9014167636632919e-03 0 -1 1039
            9.0836519375443459e-03 -2 -3 827 3.1858563423156738e-02</internalNodes>
          <leafValues>
            -1.9323745369911194e-01 3.4291705489158630e-01
            4.4630071520805359e-01 -3.0717793107032776e-01</leafValues></_>
        <_>
          <internalNodes>
            1 2 1668 -2.3320554755628109e-03 0 -1 399
            -4.0045857429504395e-02 -2 -3 1471 -2.0544407889246941e-03</internalNodes>
          <leafValues>
            4.2268127202987671e-01 -8.4120929241180420e-01
            1.8994423747062683e-01 -1.5359649062156677e-01</leafValues></_>
        <_>
          <internalNodes>
            1 2 1765 1.7593545635463670e-05 0 -1 1395
            3.8164038414834067e-05 -2 -3 1570 1.2871341314166784e-03</internalNodes>
          <leafValues>
            -4.2274531722068787e-01 2.2383136674761772e-03
            2.0879368484020233e-01 -5.7348406314849854e-01</leafValues></_>
        <_>
          <internalNodes>
            1 2 1277 8.9911688119173050e-03 0 -1 799
            -4.6205674298107624e-03 -2 -3 1516 -4.4235987588763237e-03</internalNodes>
          <leafValues>
            4.5815071463584900e-01 -1.2315640598535538e-01
            -9.7582626342773438e-01 5.6248980760574341e-01</leafValues></_>
        <_>
          <internalNodes>
            1 2 931 7.7446759678423405e-04 0 -1 1359
            -5.1640537567436695e-03 -2 -3 130 -3.3924885094165802e-02</internalNodes>
          <leafValues>
            -5.1788210868835449e-01 -8.3178859204053879e-03
            -3.6043551564216614e-01 3.0233973264694214e-01</leafValues></_>
        <_>
          <internalNodes>
            1 2 200 -5.7406411506235600e-03 0 -1 15
            1.9332299707457423e-03 -2 -3 364 9.9846837110817432e-04</internalNodes>
          <leafValues>
            5.4544520378112793e-01 -1.1661437153816223e-01
            -2.3331235349178314e-01 1.6277536749839783e-01</leafValues></_></weakClassifiers></_>
    <!-- stage 10 -->
    <_>
      <maxWeakCount>26</maxWeakCount>
      <stageThreshold>-1.9740774631500244e+00</stageThreshold>
      <weakClassifiers>
        <_>
          <internalNodes>
            1 2 357 1.7061240971088409e-02 0 -1 517
            -7.0058122277259827e-02 -2 -3 172 1.1571329832077026e-01</internalNodes>
          <leafValues>
            7.1125268936157227e-02 -5.5427724123001099e-01
            -4.2382928729057312e-01 5.0969129800796509e-01</leafValues></_>
        <_>
          <internalNodes>
            1 2 1187 -1.1864488478749990e-03 0 -1 1407
            -4.2711887508630753e-03 -2 -3 672 6.9452282041311264e-03</internalNodes>
          <leafValues>
            -3.6421677470207214e-01 1.7389373481273651e-01
            -6.7989438772201538e-01 -8.6132824420928955e-02</leafValues></_>
        <_>
          <internalNodes>
            1 2 1167 -5.9779424918815494e-04 0 -1 1497
            9.6742027380969375e-05 -2 -3 1194 -5.1899859681725502e-03</internalNodes>
          <leafValues>
            -6.9601947069168091e-01 -1.0631034523248672e-01
            3.5453709959983826e-01 -4.2945072054862976e-02</leafValues></_>
        <_>
          <internalNodes>
            1 2 1252 1.1719268560409546e-01 0 -1 269
            -1.6594868153333664e-02 -2 -3 6 3.8162197917699814e-02</internalNodes>
          <leafValues>
            2.8416752815246582e-01 -2.8150981664657593e-01
            -1.8490748107433319e-01 5.4572951793670654e-01</leafValues></_>
        <_>
          <internalNodes>
            1 2 137 -1.6880588605999947e-02 0 -1 380
            3.7053560372442007e-03 -2 -3 528 6.2504159286618233e-03</internalNodes>
          <leafValues>
            4.6771469712257385e-01 -2.2768418490886688e-01
            -2.4615956842899323e-01 1.7408969998359680e-01</leafValues></_>
        <_>
          <internalNodes>
            1 2 1204 1.0789455845952034e-03 0 -1 1181
            1.7206893971888348e-05 -2 -3 478 7.2494469583034515e-02</internalNodes>
          <leafValues>
            -1.5895983576774597e-01 2.0181658864021301e-01
            -8.3423119783401489e-01 6.0910189151763916e-01</leafValues></_>
        <_>
          <internalNodes>
            1 2 560 -3.4535597078502178e-03 0 -1 869
            1.6349380603060126e-03 -2 -3 737 5.8485511690378189e-03</internalNodes>
          <leafValues>
            3.5384160280227661e-01 -5.0468277931213379e-01
            -2.5441730022430420e-01 2.5149783492088318e-01</leafValues></_>
        <_>
          <internalNodes>
            1 2 942 3.1194256735034287e-04 0 -1 596
            7.1192546747624874e-03 -2 -3 975 9.3819177709519863e-04</internalNodes>
          <leafValues>
            -2.9895782470703125e-01 1.9062601029872894e-01
            3.0064606666564941e-01 -3.8246688246726990e-01</leafValues></_>
        <_>
          <internalNodes>
            1 2 1820 -1.6061996575444937e-05 0 -1 1341
            4.8380391672253609e-03 -2 -3 938 9.2723935842514038e-02</internalNodes>
          <leafValues>
            2.1967455744743347e-01 -4.4608730077743530e-01
            -4.1967350244522095e-01 1.1165788769721985e-01</leafValues></_>
        <_>
          <internalNodes>
            1 2 1593 -1.4809615910053253e-02 0 -1 1517
            -2.0117205567657948e-03 -2 -3 1876 1.0304932948201895e-03</internalNodes>
          <leafValues>
            -3.8096085190773010e-01 3.2907795906066895e-01
            -2.6976311206817627e-01 1.5425273776054382e-01</leafValues></_>
        <_>
          <internalNodes>
            1 2 465 -1.3179672881960869e-02 0 -1 488
            -5.1369052380323410e-03 -2 -3 1079 1.2956727296113968e-03</internalNodes>
          <leafValues>
            4.7111377120018005e-01 1.5658871270716190e-03
            -2.5866132974624634e-01 2.4619513750076294e-01</leafValues></_>
        <_>
          <internalNodes>
            1 2 786 6.2138596549630165e-03 0 -1 84
            3.4226410207338631e-04 -2 -3 651 4.1515484452247620e-02</internalNodes>
          <leafValues>
            1.4456228911876678e-01 -2.2040793299674988e-01
            -8.3545315265655518e-01 6.6315221786499023e-01</leafValues></_>
        <_>
          <internalNodes>
            1 2 84 -3.8025033427402377e-04 0 -1 204
            1.7920348327606916e-03 -2 -3 786 -5.8644162490963936e-03</internalNodes>
          <leafValues>
            -3.8942477107048035e-01 4.2536891996860504e-02
            -6.0328751802444458e-01 1.3049982488155365e-01</leafValues></_>
        <_>
          <internalNodes>
            1 2 1016 -7.4462722986936569e-03 0 -1 1088
            1.2592153623700142e-02 -2 -3 698 -8.5641304031014442e-03</internalNodes>
          <leafValues>
            3.7411746382713318e-01 -3.2871827483177185e-01
            3.3234548568725586e-01 -1.9622983038425446e-01</leafValues></_>
        <_>
          <internalNodes>
            1 2 670 3.0491338111460209e-03 0 -1 1532
            3.0900433193892241e-04 -2 -3 1714 -3.7680182140320539e-04</internalNodes>
          <leafValues>
            -3.0299744009971619e-01 6.6511452198028564e-02
            4.7825667262077332e-01 -3.1050536036491394e-01</leafValues></_>
        <_>
          <internalNodes>
            1 2 989 7.7911270782351494e-03 0 -1 1014
            -3.4866111818701029e-03 -2 -3 974 -5.2100960165262222e-03</internalNodes>
          <leafValues>
            1.2356310337781906e-01 -2.8430399298667908e-01
            -3.2291293144226074e-01 3.6915764212608337e-01</leafValues></_>
        <_>
          <internalNodes>
            1 2 1541 -1.8096881685778499e-03 0 -1 1409
            -1.9314231351017952e-02 -2 -3 833 -5.8119450695812702e-03</internalNodes>
          <leafValues>
            2.2032524645328522e-01 -7.1592509746551514e-01
            3.2704886794090271e-01 -5.0940547138452530e-02</leafValues></_>
        <_>
          <internalNodes>
            1 2 1115 1.0257584508508444e-03 0 -1 924
            -3.2662991434335709e-03 -2 -3 896 6.8049849942326546e-03</internalNodes>
          <leafValues>
            -4.7859391570091248e-01 1.0653995722532272e-01
            -5.7964128255844116e-01 8.5688434541225433e-02</leafValues></_>
        <_>
          <internalNodes>
            1 2 1514 -3.3091637305915356e-04 0 -1 1166
            -4.5027627493254840e-05 -2 -3 1277 -4.3705534189939499e-03</internalNodes>
          <leafValues>
            2.4802634119987488e-01 -8.0659687519073486e-02
            2.9252532124519348e-01 -4.9097585678100586e-01</leafValues></_>
        <_>
          <internalNodes>
            1 2 505 7.2309728711843491e-03 0 -1 375
            4.0752399945631623e-04 -2 -3 289 -1.2387098744511604e-02</internalNodes>
          <leafValues>
            -1.0322991013526917e-01 2.1239335834980011e-01
            -2.9042077064514160e-01 -9.3497431278228760e-01</leafValues></_>
        <_>
          <internalNodes>
            1 2 285 -2.0456511992961168e-03 0 -1 280
            -3.9431601180694997e-04 -2 -3 267 -2.1479169372469187e-03</internalNodes>
          <leafValues>
            -2.0024555921554565e-01 3.3224299550056458e-01
            2.7928486466407776e-01 -2.0919410884380341e-01</leafValues></_>
        <_>
          <internalNodes>
            1 2 995 -3.4799287095665932e-03 0 -1 523
            6.9163832813501358e-03 -2 -3 336 -1.5750303282402456e-04</internalNodes>
          <leafValues>
            -6.8592929840087891e-01 1.8866112828254700e-01
            -1.5086962282657623e-01 1.6636091470718384e-01</leafValues></_>
        <_>
          <internalNodes>
            1 2 734 8.9405313134193420e-02 0 -1 1151
            -2.3015741258859634e-02 -2 -3 549 2.2754238918423653e-02</internalNodes>
          <leafValues>
            -6.2258487939834595e-01 6.9289147853851318e-02
            -6.4073890447616577e-01 7.8189367055892944e-01</leafValues></_>
        <_>
          <internalNodes>
            1 2 1811 1.6449011862277985e-02 0 -1 1807
            -1.4427309855818748e-02 -2 -3 1130 -1.8244456441607326e-04</internalNodes>
          <leafValues>
            2.3013296723365784e-01 -2.6331260800361633e-01
            3.4275200963020325e-01 -8.2590691745281219e-02</leafValues></_>
        <_>
          <internalNodes>
            1 2 1802 2.5218566879630089e-02 0 -1 476
            1.2885326519608498e-02 -2 -3 1519 1.2951089069247246e-02</internalNodes>
          <leafValues>
            -1.8865013122558594e-01 2.8628578782081604e-01
            2.8322738409042358e-01 -7.1657556295394897e-01</leafValues></_>
        <_>
          <internalNodes>
            1 2 903 2.4850619956851006e-03 0 -1 1064
            1.7833828460425138e-03 -2 -3 840 -1.9370359368622303e-03</internalNodes>
          <leafValues>
            -2.3951497673988342e-01 2.3072595894336700e-01
            -2.2591854631900787e-01 3.1285613775253296e-01</leafValues></_></weakClassifiers></_>
    <!-- stage 11 -->
    <_>
      <maxWeakCount>29</maxWeakCount>
      <stageThreshold>-1.8941469192504883e+00</stageThreshold>
      <weakClassifiers>
        <_>
          <internalNodes>
            1 2 449 7.2044387459754944e-02 0 -1 416
            -2.5178445503115654e-02 -2 -3 472 2.3286519572138786e-02</internalNodes>
          <leafValues>
            -3.3569738268852234e-02 -5.3422087430953979e-01
            -3.5774308443069458e-01 4.5758929848670959e-01</leafValues></_>
        <_>
          <internalNodes>
            1 2 402 -2.4622309952974319e-02 0 -1 922
            2.8526791720651090e-04 -2 -3 339 2.5620229542255402e-02</internalNodes>
          <leafValues>
            -3.3507499098777771e-01 3.0449670553207397e-01
            -3.7133306264877319e-01 1.2354052066802979e-01</leafValues></_>
        <_>
          <internalNodes>
            1 2 1430 3.4389441134408116e-04 0 -1 1431
            -3.3315387554466724e-04 -2 -3 1365 8.8808201253414154e-03</internalNodes>
          <leafValues>
            -2.1685355901718140e-01 2.7313706278800964e-01
            -1.9432196021080017e-01 -7.3871940374374390e-01</leafValues></_>
        <_>
          <internalNodes>
            1 2 963 5.8282669633626938e-03 0 -1 1110
            -7.0189498364925385e-03 -2 -3 1624 4.2484500445425510e-03</internalNodes>
          <leafValues>
            -4.1397362947463989e-01 1.5218596160411835e-01
            -5.5035072565078735e-01 4.3013980984687805e-01</leafValues></_>
        <_>
          <internalNodes>
            1 2 1655 6.6960100084543228e-03 0 -1 1076
            8.8125374168157578e-04 -2 -3 1488 -1.6192354261875153e-02</internalNodes>
          <leafValues>
            -4.7962892055511475e-01 3.6457557231187820e-02
            -4.8816904425621033e-01 2.9905018210411072e-01</leafValues></_>
        <_>
          <internalNodes>
            1 2 1590 -9.5960043370723724e-02 0 -1 156
            -8.0519337207078934e-03 -2 -3 1791 -4.1982501745223999e-02</internalNodes>
          <leafValues>
            6.6944158077239990e-01 4.0966421365737915e-02
            1.9073952734470367e-01 -2.3925076425075531e-01</leafValues></_>
        <_>
          <internalNodes>
            1 2 841 1.2060794048011303e-02 0 -1 562
            7.6797893270850182e-03 -2 -3 853 -1.6476451419293880e-03</internalNodes>
          <leafValues>
            -1.8415981531143188e-01 2.9942744970321655e-01
            -3.9191341400146484e-01 4.4863206148147583e-01</leafValues></_>
        <_>
          <internalNodes>
            1 2 1246 3.2051862217485905e-03 0 -1 1353
            -1.3355480041354895e-03 -2 -3 1227 1.6156850324478000e-04</internalNodes>
          <leafValues>
            5.2522383630275726e-03 -5.7553935050964355e-01
            -2.6963695883750916e-01 3.2161015272140503e-01</leafValues></_>
        <_>
          <internalNodes>
            1 2 671 3.8533415645360947e-03 0 -1 497
            -6.1352300690487027e-04 -2 -3 664 -5.9535582549870014e-03</internalNodes>
          <leafValues>
            9.0199753642082214e-02 -2.7713137865066528e-01
            -4.1679057478904724e-01 3.3841714262962341e-01</leafValues></_>
        <_>
          <internalNodes>
            1 2 487 -3.1334387604147196e-03 0 -1 994
            8.0381752923130989e-04 -2 -3 365 1.2250309810042381e-03</internalNodes>
          <leafValues>
            3.7873399257659912e-01 -3.3000591397285461e-01
            -2.1948675811290741e-01 1.8287195265293121e-01</leafValues></_>
        <_>
          <internalNodes>
            1 2 377 1.0879131034016609e-02 0 -1 1987
            -2.6523543056100607e-04 -2 -3 1589 2.3192748427391052e-02</internalNodes>
          <leafValues>
            -1.9996766746044159e-01 1.3470487296581268e-01
            -8.5044360160827637e-01 5.7524609565734863e-01</leafValues></_>
        <_>
          <internalNodes>
            1 2 282 2.2830669768154621e-03 0 -1 132
            -3.6032765638083220e-03 -2 -3 363 -2.3057747166603804e-03</internalNodes>
          <leafValues>
            1.4680995047092438e-01 -2.3356020450592041e-01
            4.8235616087913513e-01 3.8034014403820038e-02</leafValues></_>
        <_>
          <internalNodes>
            1 2 1747 1.8181875930167735e-04 0 -1 1937
            5.5605471134185791e-03 -2 -3 1368 -5.5713014444336295e-04</internalNodes>
          <leafValues>
            -4.4190734624862671e-02 2.9717069864273071e-01
            -9.0189719200134277e-01 -2.1759612858295441e-01</leafValues></_>
        <_>
          <internalNodes>
            1 2 1950 -1.4277321752160788e-03 0 -1 1320
            1.0097373276948929e-02 -2 -3 1041 9.0994015336036682e-03</internalNodes>
          <leafValues>
            3.5862526297569275e-01 -3.2937535643577576e-01
            -2.0179639756679535e-01 2.3423083126544952e-01</leafValues></_>
        <_>
          <internalNodes>
            1 2 1548 -4.9646951083559543e-05 0 -1 1499
            -1.8829372711479664e-03 -2 -3 1448 -4.2477659881114960e-03</internalNodes>
          <leafValues>
            -5.0728195905685425e-01 1.1781791597604752e-01
            2.7273938059806824e-01 -5.4173797369003296e-01</leafValues></_>
        <_>
          <internalNodes>
            1 2 18 4.8409937880933285e-04 0 -1 18
            -2.9252390959300101e-04 -2 -3 1598 1.3016958720982075e-02</internalNodes>
          <leafValues>
            -2.0956560969352722e-01 2.2720499336719513e-01
            -3.9411196112632751e-01 7.5395442545413971e-02</leafValues></_>
        <_>
          <internalNodes>
            1 2 744 7.5166360475122929e-03 0 -1 573
            -4.3718628585338593e-03 -2 -3 741 3.1739188125357032e-04</internalNodes>
          <leafValues>
            2.4112492799758911e-01 -1.8206180632114410e-01
            4.1955426335334778e-01 -2.2828991711139679e-01</leafValues></_>
        <_>
          <internalNodes>
            1 2 644 6.8712495267391205e-03 0 -1 644
            -5.5259615182876587e-03 -2 -3 1037 -2.4846881628036499e-02</internalNodes>
          <leafValues>
            -4.5747166872024536e-01 7.8564681112766266e-02
            2.3155558109283447e-01 -7.6154220104217529e-01</leafValues></_>
        <_>
          <internalNodes>
            1 2 482 3.7603031378239393e-03 0 -1 600
            4.6210200525820255e-03 -2 -3 136 -2.2049084305763245e-02</internalNodes>
          <leafValues>
            -1.8485356867313385e-01 1.8976448476314545e-01
            5.5535322427749634e-01 3.5646077245473862e-02</leafValues></_>
        <_>
          <internalNodes>
            1 2 476 -3.3290521241724491e-03 0 -1 329
            -5.3122341632843018e-03 -2 -3 1259 -6.0559697449207306e-03</internalNodes>
          <leafValues>
            -2.4990552663803101e-01 2.4758842587471008e-01
            2.0568703114986420e-01 -2.7083680033683777e-01</leafValues></_>
        <_>
          <internalNodes>
            1 2 1848 -3.6715122405439615e-04 0 -1 1557
            -1.1877104640007019e-02 -2 -3 1549 4.8152403905987740e-03</internalNodes>
          <leafValues>
            2.8792992234230042e-01 -3.3437344431877136e-01
            1.2656563520431519e-01 -6.4273816347122192e-01</leafValues></_>
        <_>
          <internalNodes>
            1 2 1146 -6.5790517255663872e-03 0 -1 1949
            -5.7917870581150055e-02 -2 -3 1022 -5.4277703166007996e-03</internalNodes>
          <leafValues>
            4.0772178769111633e-01 -6.1255151033401489e-01
            2.8333449363708496e-01 -5.9140086174011230e-02</leafValues></_>
        <_>
          <internalNodes>
            1 2 1567 1.1947387829422951e-03 0 -1 1241
            -3.4686527214944363e-03 -2 -3 1685 6.7999458406120539e-04</internalNodes>
          <leafValues>
            1.7543701827526093e-01 -2.7328872680664062e-01
            -1.2022598832845688e-01 3.0377855896949768e-01</leafValues></_>
        <_>
          <internalNodes>
            1 2 1168 2.1603335626423359e-03 0 -1 1165
            3.9168233342934400e-05 -2 -3 588 -1.3877344317734241e-02</internalNodes>
          <leafValues>
            -1.2709486484527588e-01 1.9908477365970612e-01
            1.9926032051444054e-02 -7.1653497219085693e-01</leafValues></_>
        <_>
          <internalNodes>
            1 2 219 6.4317129552364349e-02 0 -1 914
            -2.8146309778094292e-03 -2 -3 467 -1.8332805484533310e-02</internalNodes>
          <leafValues>
            -4.7189822793006897e-01 8.5610173642635345e-02
            3.4418788552284241e-01 -6.4391422271728516e-01</leafValues></_>
        <_>
          <internalNodes>
            1 2 503 9.6917123300954700e-04 0 -1 272
            1.3924465747550130e-03 -2 -3 971 -4.4158927630633116e-04</internalNodes>
          <leafValues>
            -2.4512915313243866e-01 1.6535523533821106e-01
            -1.7075385153293610e-01 3.1572929024696350e-01</leafValues></_>
        <_>
          <internalNodes>
            1 2 141 4.1333714034408331e-04 0 -1 141
            -1.7706931976135820e-04 -2 -3 658 2.6215005200356245e-03</internalNodes>
          <leafValues>
            -1.0305649787187576e-01 2.1281088888645172e-01
            -3.7844917178153992e-01 9.9448688328266144e-02</leafValues></_>
        <_>
          <internalNodes>
            1 2 1580 2.5818217545747757e-04 0 -1 1723
            -2.0184785171295516e-05 -2 -3 1597 -1.1626154184341431e-02</internalNodes>
          <leafValues>
            1.0751383379101753e-02 -4.0438926219940186e-01
            3.9588439464569092e-01 -1.1593116447329521e-02</leafValues></_>
        <_>
          <internalNodes>
            1 2 1044 1.2047179043292999e-02 0 -1 1285
            -4.1559427045285702e-03 -2 -3 1156 -3.2242431771010160e-03</internalNodes>
          <leafValues>
            2.5202390551567078e-01 -1.8187159299850464e-01
            -4.9079787731170654e-01 3.7865003943443298e-01</leafValues></_></weakClassifiers></_>
    <!-- stage 12 -->
    <_>
      <maxWeakCount>34</maxWeakCount>
      <stageThreshold>-1.9512645006179810e+00</stageThreshold>
      <weakClassifiers>
        <_>
          <internalNodes>
            1 2 613 1.1344751343131065e-02 0 -1 27
            -2.2787317633628845e-01 -2 -3 138 3.8262978196144104e-02</internalNodes>
          <leafValues>
            2.4213076103478670e-03 -5.1062875986099243e-01
            -3.3371824026107788e-01 5.1667428016662598e-01</leafValues></_>
        <_>
          <internalNodes>
            1 2 543 2.1200382616370916e-03 0 -1 346
            1.9490044564008713e-02 -2 -3 3 1.9275265932083130e-01</internalNodes>
          <leafValues>
            -2.5790339708328247e-01 2.4050591886043549e-01
            2.1084437146782875e-02 6.2538951635360718e-01</leafValues></_>
        <_>
          <internalNodes>
            1 2 617 -3.0262926593422890e-03 0 -1 1199
            -2.1892329095862806e-04 -2 -3 601 3.3279873896390200e-03</internalNodes>
          <leafValues>
            4.0859454870223999e-01 -3.1358823180198669e-01
            -2.8447735309600830e-01 1.3903993368148804e-01</leafValues></_>
        <_>
          <internalNodes>
            1 2 1816 2.5475133210420609e-02 0 -1 1956
            -7.4951245915144682e-04 -2 -3 1384 -2.5801185984164476e-04</internalNodes>
          <leafValues>
            1.8677058815956116e-01 -2.3649166524410248e-01
            3.4505376219749451e-01 -4.8374289274215698e-01</leafValues></_>
        <_>
          <internalNodes>
            1 2 586 -7.2158891707658768e-03 0 -1 847
            -6.6532578784972429e-05 -2 -3 743 2.5608381256461143e-03</internalNodes>
          <leafValues>
            5.0602370500564575e-01 -3.5123440623283386e-01
            -2.1361283957958221e-01 1.6562476754188538e-01</leafValues></_>
        <_>
          <internalNodes>
            1 2 208 -3.7919823080301285e-02 0 -1 257
            -1.8487749621272087e-02 -2 -3 725 -5.6717507541179657e-03</internalNodes>
          <leafValues>
            4.2076450586318970e-01 -6.9307154417037964e-01
            3.8667130470275879e-01 -1.8968464806675911e-02</leafValues></_>
        <_>
          <internalNodes>
            1 2 1828 -3.4371816582279280e-05 0 -1 1188
            7.0692263543605804e-03 -2 -3 1226 1.0408544912934303e-03</internalNodes>
          <leafValues>
            1.5152950584888458e-01 -5.0973302125930786e-01
            -5.8922737836837769e-01 -8.9035145938396454e-02</leafValues></_>
        <_>
          <internalNodes>
            1 2 204 3.2199062407016754e-03 0 -1 205
            -2.6718610897660255e-03 -2 -3 731 1.5387816354632378e-02</internalNodes>
          <leafValues>
            1.9698061048984528e-01 -2.2482293844223022e-01
            4.0667411684989929e-01 -5.2381896972656250e-01</leafValues></_>
        <_>
          <internalNodes>
            1 2 527 3.0314731411635876e-03 0 -1 1242
            -2.1357065998017788e-03 -2 -3 1232 -1.0491001885384321e-03</internalNodes>
          <leafValues>
            2.5482112169265747e-01 -1.7638087272644043e-01
            3.7832403182983398e-01 -2.9983735084533691e-01</leafValues></_>
        <_>
          <internalNodes>
            1 2 1616 2.1732528693974018e-03 0 -1 1611
            -1.0124947875738144e-03 -2 -3 1295 -2.1994141861796379e-03</internalNodes>
          <leafValues>
            1.6836053133010864e-01 -1.7970879375934601e-01
            -1.1398102343082428e-01 5.5484986305236816e-01</leafValues></_>
        <_>
          <internalNodes>
            1 2 976 2.9332926496863365e-03 0 -1 1910
            -8.6494558490812778e-04 -2 -3 1799 5.5397618561983109e-03</internalNodes>
          <leafValues>
            -2.2997589409351349e-01 1.1556152254343033e-01
            -8.4384179115295410e-01 -1.4835555851459503e-01</leafValues></_>
        <_>
          <internalNodes>
            1 2 1910 5.4633012041449547e-04 0 -1 428
            -3.4241816028952599e-03 -2 -3 1571 9.0436358004808426e-04</internalNodes>
          <leafValues>
            3.7115532159805298e-01 -2.4267015978693962e-03
            -1.8340834975242615e-01 -7.7923208475112915e-01</leafValues></_>
        <_>
          <internalNodes>
            1 2 1709 6.3467565923929214e-03 0 -1 1281
            -8.4260664880275726e-03 -2 -3 1328 2.8676744550466537e-03</internalNodes>
          <leafValues>
            1.6100116074085236e-01 -2.8011453151702881e-01
            2.6560419797897339e-01 -4.2204591631889343e-01</leafValues></_>
        <_>
          <internalNodes>
            1 2 732 1.5965666621923447e-02 0 -1 1062
            1.7335845623165369e-03 -2 -3 10 -1.0957326740026474e-02</internalNodes>
          <leafValues>
            -1.0666520148515701e-01 2.1254427731037140e-01
            -5.7046305388212204e-02 -7.0976299047470093e-01</leafValues></_>
        <_>
          <internalNodes>
            1 2 1840 -6.3302610069513321e-03 0 -1 1413
            -2.3083623964339495e-03 -2 -3 1377 7.1025849319994450e-03</internalNodes>
          <leafValues>
            -4.1315898299217224e-01 2.7775803208351135e-01
            -3.0908781290054321e-01 7.6251678168773651e-02</leafValues></_>
        <_>
          <internalNodes>
            1 2 1974 -7.7915298752486706e-03 0 -1 1637
            -2.3736222647130489e-03 -2 -3 1893 -7.9168379306793213e-04</internalNodes>
          <leafValues>
            -4.7691953182220459e-01 3.8207948207855225e-01
            1.3677951693534851e-01 -1.8353392183780670e-01</leafValues></_>
        <_>
          <internalNodes>
            1 2 1657 -1.5099673764780164e-03 0 -1 221
            -4.6624038368463516e-03 -2 -3 1049 -9.7812116146087646e-03</internalNodes>
          <leafValues>
            2.4567280709743500e-01 -4.8688164353370667e-01
            4.7664716839790344e-01 7.1795196272432804e-03</leafValues></_>
        <_>
          <internalNodes>
            1 2 125 -4.7247228212654591e-03 0 -1 48
            -8.1168249249458313e-02 -2 -3 195 1.4558145776391029e-03</internalNodes>
          <leafValues>
            -5.6811290979385376e-01 3.1072828173637390e-01
            -1.9984397292137146e-01 1.3660205900669098e-01</leafValues></_>
        <_>
          <internalNodes>
            1 2 1665 1.0599300265312195e-02 0 -1 468
            -2.0792800933122635e-04 -2 -3 287 2.1955408155918121e-02</internalNodes>
          <leafValues>
            -1.6075663268566132e-01 1.3117963075637817e-01
            -8.0065262317657471e-01 4.1231286525726318e-01</leafValues></_>
        <_>
          <internalNodes>
            1 2 730 3.1534582376480103e-03 0 -1 291
            8.6246646940708160e-02 -2 -3 442 6.0630239546298981e-02</internalNodes>
          <leafValues>
            7.5060956180095673e-02 -5.0848245620727539e-01
            -5.0336104631423950e-01 5.5994570255279541e-01</leafValues></_>
        <_>
          <internalNodes>
            1 2 1040 -2.9848800040781498e-03 0 -1 838
            -6.2173767946660519e-04 -2 -3 1495 -1.6061996575444937e-05</internalNodes>
          <leafValues>
            -2.0386306941509247e-01 3.6213195323944092e-01
            1.2220982462167740e-01 -2.0244008302688599e-01</leafValues></_>
        <_>
          <internalNodes>
            1 2 925 -9.8880063742399216e-03 0 -1 1191
            1.3522366061806679e-02 -2 -3 1551 -3.4756405511870980e-05</internalNodes>
          <leafValues>
            -8.6446022987365723e-01 1.3219434022903442e-01
            1.0215640068054199e-01 -2.5973787903785706e-01</leafValues></_>
        <_>
          <internalNodes>
            1 2 500 -5.5859982967376709e-03 0 -1 885
            1.6942768124863505e-03 -2 -3 368 4.2931609787046909e-03</internalNodes>
          <leafValues>
            -2.3974299430847168e-01 2.8729772567749023e-01
            -2.6352316141128540e-01 1.3871137797832489e-01</leafValues></_>
        <_>
          <internalNodes>
            1 2 1254 -5.0847437232732773e-03 0 -1 850
            1.0342033579945564e-02 -2 -3 1449 -2.6693262625485659e-03</internalNodes>
          <leafValues>
            7.5386554002761841e-02 5.8992606401443481e-01
            2.0082230865955353e-01 -2.0537380874156952e-01</leafValues></_>
        <_>
          <internalNodes>
            1 2 729 -8.7468335404992104e-03 0 -1 1070
            3.8217315450310707e-03 -2 -3 1350 -4.3332939967513084e-03</internalNodes>
          <leafValues>
            -2.7300545573234558e-01 -9.2554885149002075e-01
            -7.5156730413436890e-01 8.3195298910140991e-02</leafValues></_>
        <_>
          <internalNodes>
            1 2 786 3.7375448737293482e-03 0 -1 1729
            -4.3951924453722313e-05 -2 -3 1244 1.9682622514665127e-03</internalNodes>
          <leafValues>
            1.2524382770061493e-01 -1.5374499559402466e-01
            -6.8924444913864136e-01 4.9490958452224731e-02</leafValues></_>
        <_>
          <internalNodes>
            1 2 982 1.6411514952778816e-03 0 -1 819
            -3.2945356797426939e-03 -2 -3 1001 -1.4727216912433505e-03</internalNodes>
          <leafValues>
            6.9431670010089874e-02 -3.1425350904464722e-01
            -1.9209809601306915e-01 2.7061975002288818e-01</leafValues></_>
        <_>
          <internalNodes>
            1 2 310 -1.5792930498719215e-02 0 -1 1681
            -4.7477841144427657e-04 -2 -3 616 2.9602716676890850e-03</internalNodes>
          <leafValues>
            6.3675707578659058e-01 -2.1660141646862030e-01
            -1.0207318514585495e-01 3.1484666466712952e-01</leafValues></_>
        <_>
          <internalNodes>
            1 2 1984 -1.5476217959076166e-03 0 -1 1192
            2.1358982194215059e-03 -2 -3 1986 3.3006520243361592e-04</internalNodes>
          <leafValues>
            -1.6523048281669617e-01 -7.9126197099685669e-01
            1.7565335333347321e-01 -1.4379586279392242e-01</leafValues></_>
        <_>
          <internalNodes>
            1 2 1969 3.6190389655530453e-03 0 -1 1939
            -8.3671752363443375e-03 -2 -3 1941 -4.0303028072230518e-04</internalNodes>
          <leafValues>
            2.1135909855365753e-01 -1.8903873860836029e-01
            3.8614279031753540e-01 -1.1999432742595673e-01</leafValues></_>
        <_>
          <internalNodes>
            1 2 300 3.4510920522734523e-04 0 -1 657
            5.6244159350171685e-04 -2 -3 216 5.0157178193330765e-02</internalNodes>
          <leafValues>
            -2.2469544410705566e-01 1.3100266456604004e-01
            2.1271590888500214e-01 -5.6126582622528076e-01</leafValues></_>
        <_>
          <internalNodes>
            1 2 786 -3.0879387632012367e-03 0 -1 1871
            2.8882708400487900e-02 -2 -3 1103 8.4190145134925842e-03</internalNodes>
          <leafValues>
            -4.2852625250816345e-01 5.1134133338928223e-01
            9.1010652482509613e-02 -3.8409236073493958e-01</leafValues></_>
        <_>
          <internalNodes>
            1 2 1851 3.9171038224594668e-05 0 -1 1363
            -3.8689412176609039e-03 -2 -3 1310 -2.1998517215251923e-02</internalNodes>
          <leafValues>
            -4.7436732053756714e-01 -3.9457574486732483e-02
            -3.5421797633171082e-01 1.9619627296924591e-01</leafValues></_>
        <_>
          <internalNodes>
            1 2 1069 -2.0489883609116077e-03 0 -1 872
            2.4357133079320192e-03 -2 -3 909 -4.4805515790358186e-04</internalNodes>
          <leafValues>
            3.5452032089233398e-01 -2.2386987507343292e-01
            1.4209312200546265e-01 -2.4220992624759674e-01</leafValues></_></weakClassifiers></_>
    <!-- stage 13 -->
    <_>
      <maxWeakCount>39</maxWeakCount>
      <stageThreshold>-2.0672266483306885e+00</stageThreshold>
      <weakClassifiers>
        <_>
          <internalNodes>
            1 2 100 2.6992109417915344e-01 0 -1 514
            -5.6279700947925448e-04 -2 -3 28 8.5321180522441864e-02</internalNodes>
          <leafValues>
            -2.8577879071235657e-01 -6.1142194271087646e-01
            -4.4916090369224548e-01 4.9110150337219238e-01</leafValues></_>
        <_>
          <internalNodes>
            1 2 1029 1.1148627847433090e-01 0 -1 95
            -3.2754406332969666e-02 -2 -3 247 -8.6082462221384048e-03</internalNodes>
          <leafValues>
            1.4467282593250275e-01 -2.8680092096328735e-01
            5.5984669923782349e-01 -1.0532207041978836e-01</leafValues></_>
        <_>
          <internalNodes>
            1 2 891 4.6731755137443542e-03 0 -1 692
            -5.1890406757593155e-03 -2 -3 1289 1.8684507813304663e-03</internalNodes>
          <leafValues>
            2.0391507446765900e-01 -2.0926581323146820e-01
            -2.4059937894344330e-01 4.3399101495742798e-01</leafValues></_>
        <_>
          <internalNodes>
            1 2 233 -2.1012984216213226e-02 0 -1 1572
            -2.2851941175758839e-03 -2 -3 1210 -4.1550512833055109e-05</internalNodes>
          <leafValues>
            -6.0261607170104980e-02 -5.3970748186111450e-01
            1.4023591578006744e-01 -3.4391042590141296e-01</leafValues></_>
        <_>
          <internalNodes>
            1 2 122 -2.4525947868824005e-02 0 -1 49
            -1.4113515615463257e-01 -2 -3 272 1.9649283494800329e-03</internalNodes>
          <leafValues>
            -6.4471310377120972e-01 3.6502200365066528e-01
            -1.7294996976852417e-01 2.0595148205757141e-01</leafValues></_>
        <_>
          <internalNodes>
            1 2 1217 1.0773153044283390e-03 0 -1 833
            -7.0759644731879234e-03 -2 -3 1366 -7.2286035865545273e-03</internalNodes>
          <leafValues>
            2.8690326213836670e-01 -7.7830888330936432e-02
            4.7868762165307999e-02 -8.7720620632171631e-01</leafValues></_>
        <_>
          <internalNodes>
            1 2 547 -5.7911672629415989e-03 0 -1 542
            6.9580590352416039e-03 -2 -3 237 -3.9556425064802170e-02</internalNodes>
          <leafValues>
            4.2005380988121033e-01 -1.7136065661907196e-01
            2.6556423306465149e-01 -1.7066927254199982e-01</leafValues></_>
        <_>
          <internalNodes>
            1 2 523 -4.1448846459388733e-03 0 -1 1394
            -5.7069910690188408e-04 -2 -3 301 2.2177952341735363e-03</internalNodes>
          <leafValues>
            4.3063786625862122e-01 -8.1942266225814819e-01
            -1.7815668880939484e-01 2.2920630872249603e-01</leafValues></_>
        <_>
          <internalNodes>
            1 2 1535 -2.6446897536516190e-03 0 -1 1626
            7.7122636139392853e-04 -2 -3 1654 1.6954580787569284e-03</internalNodes>
          <leafValues>
            -6.6066497564315796e-01 -9.6801973879337311e-02
            -8.1764116883277893e-02 2.3238764703273773e-01</leafValues></_>
        <_>
          <internalNodes>
            1 2 495 1.2469643261283636e-03 0 -1 284
            5.3168474696576595e-03 -2 -3 1547 -4.6240646042861044e-05</internalNodes>
          <leafValues>
            -1.9272460043430328e-01 2.0117020606994629e-01
            3.3998960256576538e-01 -1.9673529267311096e-01</leafValues></_>
        <_>
          <internalNodes>
            1 2 1642 -3.2572117634117603e-03 0 -1 1390
            -2.4174770805984735e-03 -2 -3 1943 -2.4942141026258469e-02</internalNodes>
          <leafValues>
            4.7556042671203613e-01 -7.6332494616508484e-02
            1.9621999561786652e-01 -2.4238258600234985e-01</leafValues></_>
        <_>
          <internalNodes>
            1 2 1504 -1.1680075898766518e-02 0 -1 1767
            -2.3760255135130137e-04 -2 -3 947 3.7486257497221231e-05</internalNodes>
          <leafValues>
            -2.1732629835605621e-01 -8.0355310440063477e-01
            -1.2258293479681015e-01 1.6611286997795105e-01</leafValues></_>
        <_>
          <internalNodes>
            1 2 962 -7.8960917890071869e-03 0 -1 2000
            -8.1411665305495262e-03 -2 -3 755 1.3454440049827099e-03</internalNodes>
          <leafValues>
            -5.6861311197280884e-02 -7.5175464153289795e-01
            -8.3997942507266998e-02 2.2365221381187439e-01</leafValues></_>
        <_>
          <internalNodes>
            1 2 788 -4.7080353397177532e-05 0 -1 649
            -1.1503191664814949e-02 -2 -3 661 8.1147358287125826e-04</internalNodes>
          <leafValues>
            -2.8662136197090149e-01 1.7871268093585968e-01
            -4.4931188225746155e-02 -4.9230533838272095e-01</leafValues></_>
        <_>
          <internalNodes>
            1 2 1138 5.4940523114055395e-04 0 -1 1742
            8.4974663332104683e-03 -2 -3 652 1.4778701588511467e-03</internalNodes>
          <leafValues>
            -2.6789644360542297e-01 1.2488962709903717e-01
            -5.7198595255613327e-02 3.4360256791114807e-01</leafValues></_>
        <_>
          <internalNodes>
            1 2 1777 -4.6692537143826485e-03 0 -1 854
            9.7767170518636703e-03 -2 -3 1597 7.5668497011065483e-03</internalNodes>
          <leafValues>
            3.1966158747673035e-01 -4.7419708967208862e-01
            -2.4470476806163788e-01 1.0919884592294693e-01</leafValues></_>
        <_>
          <internalNodes>
            1 2 728 -2.5762165896594524e-03 0 -1 1415
            1.8412899225950241e-03 -2 -3 405 2.4858582764863968e-03</internalNodes>
          <leafValues>
            -5.5972081422805786e-01 3.3829081803560257e-02
            -3.2257098704576492e-02 3.1277364492416382e-01</leafValues></_>
        <_>
          <internalNodes>
            1 2 1962 1.3671682681888342e-03 0 -1 1962
            -4.2198639130219817e-04 -2 -3 602 1.0536987334489822e-02</internalNodes>
          <leafValues>
            -1.2524718046188354e-01 2.2166408598423004e-01
            -3.3133593201637268e-01 9.1832488775253296e-02</leafValues></_>
        <_>
          <internalNodes>
            1 2 672 -1.2539189308881760e-02 0 -1 965
            8.0700833350419998e-03 -2 -3 817 2.9653471428900957e-03</internalNodes>
          <leafValues>
            2.9450467228889465e-01 -3.1933790445327759e-01
            -2.8592967987060547e-01 1.2886263430118561e-01</leafValues></_>
        <_>
          <internalNodes>
            1 2 841 7.6158409938216209e-03 0 -1 1277
            9.6838343888521194e-03 -2 -3 1102 -1.1571714654564857e-02</internalNodes>
          <leafValues>
            -1.3339714705944061e-01 4.0123584866523743e-01
            -5.4482567310333252e-01 3.0919927358627319e-01</leafValues></_>
        <_>
          <internalNodes>
            1 2 1668 -1.5323590487241745e-03 0 -1 1648
            -2.8526125242933631e-04 -2 -3 1057 1.2432978488504887e-02</internalNodes>
          <leafValues>
            -2.6919677853584290e-01 -8.9116150140762329e-01
            1.2446539849042892e-01 -1.6769692301750183e-01</leafValues></_>
        <_>
          <internalNodes>
            1 2 1873 -1.6010850667953491e-02 0 -1 1206
            -1.8277198541909456e-03 -2 -3 1926 9.2676021158695221e-03</internalNodes>
          <leafValues>
            -4.4005665183067322e-01 2.9070672392845154e-01
            -1.7320361733436584e-01 1.6862618923187256e-01</leafValues></_>
        <_>
          <internalNodes>
            1 2 375 9.8823104053735733e-04 0 -1 635
            5.6237832177430391e-04 -2 -3 382 2.3170627653598785e-02</internalNodes>
          <leafValues>
            -2.4606172740459442e-01 1.3133960962295532e-01
            2.7442705631256104e-01 -5.6373113393783569e-01</leafValues></_>
        <_>
          <internalNodes>
            1 2 623 7.7306170715019107e-04 0 -1 475
            -8.3081340417265892e-03 -2 -3 643 3.8698473945260048e-03</internalNodes>
          <leafValues>
            9.1391690075397491e-02 -2.2499312460422516e-01
            2.5294333696365356e-01 -4.8958662152290344e-01</leafValues></_>
        <_>
          <internalNodes>
            1 2 164 5.7513825595378876e-04 0 -1 271
            -1.6669526230543852e-03 -2 -3 260 -3.0720595270395279e-02</internalNodes>
          <leafValues>
            3.2851201295852661e-01 -1.1056589893996716e-02
            -6.2462484836578369e-01 -1.4812678098678589e-01</leafValues></_>
        <_>
          <internalNodes>
            1 2 927 -1.2409156188368797e-02 0 -1 1083
            -1.9922971725463867e-02 -2 -3 1747 -4.3384461605455726e-05</internalNodes>
          <leafValues>
            8.0046504735946655e-01 -6.4528214931488037e-01
            1.0112566500902176e-01 -2.1846635639667511e-01</leafValues></_>
        <_>
          <internalNodes>
            1 2 1757 1.3344397302716970e-03 0 -1 536
            4.8833312466740608e-03 -2 -3 1770 4.2881369590759277e-03</internalNodes>
          <leafValues>
            -2.6886558532714844e-01 2.1594703197479248e-01
            1.8451504409313202e-01 -3.9443850517272949e-01</leafValues></_>
        <_>
          <internalNodes>
            1 2 1716 -4.0033701225183904e-05 0 -1 1119
            5.7074119104072452e-04 -2 -3 1797 -4.6997744357213378e-04</internalNodes>
          <leafValues>
            3.4500244259834290e-01 -6.2233198434114456e-02
            2.2186791896820068e-01 -2.5644156336784363e-01</leafValues></_>
        <_>
          <internalNodes>
            1 2 1078 1.8141872715204954e-03 0 -1 911
            1.1065716389566660e-03 -2 -3 1323 2.4963426403701305e-03</internalNodes>
          <leafValues>
            -2.2272892296314240e-01 1.0410409420728683e-01
            -2.8643709421157837e-01 4.2698737978935242e-01</leafValues></_>
        <_>
          <internalNodes>
            1 2 1152 2.3074191994965076e-03 0 -1 1200
            -2.7836568187922239e-03 -2 -3 1362 5.6744684115983546e-05</internalNodes>
          <leafValues>
            -5.4641938209533691e-01 7.6222665607929230e-02
            -7.6750475168228149e-01 -1.3927952945232391e-01</leafValues></_>
        <_>
          <internalNodes>
            1 2 455 3.0802467837929726e-02 0 -1 844
            -2.3853192105889320e-03 -2 -3 584 5.1786825060844421e-03</internalNodes>
          <leafValues>
            6.0791905969381332e-02 -2.4725881218910217e-01
            -6.1437845230102539e-02 4.5794886350631714e-01</leafValues></_>
        <_>
          <internalNodes>
            1 2 258 -1.2577476445585489e-03 0 -1 1533
            -1.2244333629496396e-04 -2 -3 173 -2.7351177413947880e-04</internalNodes>
          <leafValues>
            -1.3053721189498901e-01 -5.7818901538848877e-01
            -1.3338451087474823e-01 1.7720516026020050e-01</leafValues></_>
        <_>
          <internalNodes>
            1 2 1795 -2.4004127830266953e-02 0 -1 1855
            -2.3789975792169571e-02 -2 -3 1793 3.1016534194350243e-03</internalNodes>
          <leafValues>
            -5.0155377388000488e-01 3.0377143621444702e-01
            -2.3713539540767670e-01 7.5984425842761993e-02</leafValues></_>
        <_>
          <internalNodes>
            1 2 204 3.7663262337446213e-03 0 -1 116
            -1.0324305854737759e-02 -2 -3 127 8.5488229990005493e-02</internalNodes>
          <leafValues>
            3.7506473064422607e-01 -9.1806076467037201e-02
            3.7855941057205200e-01 -6.5389019250869751e-01</leafValues></_>
        <_>
          <internalNodes>
            1 2 1118 3.5311157262185588e-05 0 -1 1650
            1.7723982455208898e-04 -2 -3 1075 2.5513600558042526e-02</internalNodes>
          <leafValues>
            -4.8909029364585876e-01 -9.4296149909496307e-03
            1.6213680803775787e-01 -1.8527756631374359e-01</leafValues></_>
        <_>
          <internalNodes>
            1 2 353 1.2919968925416470e-02 0 -1 742
            1.1611098889261484e-03 -2 -3 929 -2.5647012516856194e-03</internalNodes>
          <leafValues>
            -1.8603447079658508e-01 1.5085424482822418e-01
            3.2996216416358948e-01 -2.7329552173614502e-01</leafValues></_>
        <_>
          <internalNodes>
            1 2 1013 3.4870817326009274e-03 0 -1 1375
            -5.2456604316830635e-04 -2 -3 1000 -1.5974211273714900e-03</internalNodes>
          <leafValues>
            4.0949475951492786e-03 -4.1433548927307129e-01
            -2.4768266081809998e-01 2.4967500567436218e-01</leafValues></_>
        <_>
          <internalNodes>
            1 2 83 4.8606187105178833e-01 0 -1 43
            -1.6873551066964865e-03 -2 -3 846 5.1479302346706390e-02</internalNodes>
          <leafValues>
            1.5134204924106598e-01 -1.3840959966182709e-01
            6.7850953340530396e-01 -7.7814161777496338e-01</leafValues></_>
        <_>
          <internalNodes>
            1 2 681 -9.9578723311424255e-03 0 -1 603
            -2.8877989389002323e-03 -2 -3 862 -1.5807816525921226e-03</internalNodes>
          <leafValues>
            -1.8283809721469879e-01 3.6588966846466064e-01
            9.4706460833549500e-02 -2.4224187433719635e-01</leafValues></_></weakClassifiers></_>
    <!-- stage 14 -->
    <_>
      <maxWeakCount>40</maxWeakCount>
      <stageThreshold>-1.8734364509582520e+00</stageThreshold>
      <weakClassifiers>
        <_>
          <internalNodes>
            1 2 460 1.0069694370031357e-01 0 -1 1875
            1.4112471044063568e-01 -2 -3 56 4.5059020631015301e-03</internalNodes>
          <leafValues>
            -4.1928976774215698e-01 2.3054331541061401e-01
            -3.5812133550643921e-01 5.7779210805892944e-01</leafValues></_>
        <_>
          <internalNodes>
            1 2 646 -5.0974811892956495e-04 0 -1 1104
            4.6165314415702596e-05 -2 -3 655 -8.4561717812903225e-05</internalNodes>
          <leafValues>
            -2.3185113072395325e-01 2.9303723573684692e-01
            1.2815589085221291e-02 -4.1745886206626892e-01</leafValues></_>
        <_>
          <internalNodes>
            1 2 392 -5.4021505638957024e-03 0 -1 108
            -3.8509294390678406e-02 -2 -3 796 -1.2946105562150478e-03</internalNodes>
          <leafValues>
            1.7123603820800781e-01 -5.2087515592575073e-01
            -2.0777295529842377e-01 1.8941769003868103e-01</leafValues></_>
        <_>
          <internalNodes>
            1 2 1932 4.8039453104138374e-03 0 -1 1942
            -3.1584391836076975e-03 -2 -3 1832 -3.7718353269156069e-05</internalNodes>
          <leafValues>
            1.2780334055423737e-01 -2.4269841611385345e-01
            3.7034282088279724e-01 -1.4070141315460205e-01</leafValues></_>
        <_>
          <internalNodes>
            1 2 489 -6.1073596589267254e-03 0 -1 135
            -1.0604277253150940e-02 -2 -3 391 1.9566351547837257e-03</internalNodes>
          <leafValues>
            3.8134261965751648e-01 -7.9043336212635040e-02
            -2.6301869750022888e-01 1.9085796177387238e-01</leafValues></_>
        <_>
          <internalNodes>
            1 2 238 2.5792437791824341e-01 0 -1 34
            -1.3951044529676437e-02 -2 -3 93 -2.7094117831438780e-04</internalNodes>
          <leafValues>
            2.3205831646919250e-01 -1.7630060017108917e-01
            5.3909736871719360e-01 -9.9281981587409973e-02</leafValues></_>
        <_>
          <internalNodes>
            1 2 1382 -4.0737599192652851e-05 0 -1 1340
            -4.6350378543138504e-03 -2 -3 1466 -1.1291906703263521e-03</internalNodes>
          <leafValues>
            -4.6521663665771484e-01 1.2685403227806091e-01
            -4.6382863074541092e-02 -5.8008193969726562e-01</leafValues></_>
        <_>
          <internalNodes>
            1 2 558 -1.3659868855029345e-03 0 -1 856
            -1.6465868611703627e-05 -2 -3 574 6.5500703640282154e-03</internalNodes>
          <leafValues>
            3.7454926967620850e-01 -6.8402267992496490e-02
            -2.2899127006530762e-01 2.3414623737335205e-01</leafValues></_>
        <_>
          <internalNodes>
            1 2 371 3.6419339478015900e-02 0 -1 624
            1.8215491436421871e-03 -2 -3 218 3.0510224401950836e-02</internalNodes>
          <leafValues>
            -1.4936573803424835e-01 1.9593663513660431e-01
            1.0303770005702972e-01 6.6339963674545288e-01</leafValues></_>
        <_>
          <internalNodes>
            1 2 871 -3.3882032148540020e-03 0 -1 991
            3.1911424593999982e-04 -2 -3 736 -5.9296153485774994e-03</internalNodes>
          <leafValues>
            3.2901892066001892e-01 -4.8818421363830566e-01
            2.2072388231754303e-01 -1.8830837309360504e-01</leafValues></_>
        <_>
          <internalNodes>
            1 2 919 2.6393441483378410e-02 0 -1 1383
            2.4294448085129261e-03 -2 -3 530 4.4574547559022903e-02</internalNodes>
          <leafValues>
            1.0402832180261612e-01 -3.3853182196617126e-01
            -5.5408537387847900e-01 1.2231096625328064e-01</leafValues></_>
        <_>
          <internalNodes>
            1 2 1071 -6.7109102383255959e-03 0 -1 599
            4.5666610822081566e-04 -2 -3 1163 4.6560392365790904e-04</internalNodes>
          <leafValues>
            4.9009647965431213e-01 -1.0463634133338928e-01
            -2.5557282567024231e-01 4.2564004659652710e-02</leafValues></_>
        <_>
          <internalNodes>
            1 2 1248 3.7839711876586080e-04 0 -1 1249
            -2.3234242689795792e-04 -2 -3 1445 -3.4609906375408173e-02</internalNodes>
          <leafValues>
            -1.2122666835784912e-01 2.0957167446613312e-01
            4.1149798035621643e-01 -2.7932512760162354e-01</leafValues></_>
        <_>
          <internalNodes>
            1 2 314 2.8786030597984791e-03 0 -1 491
            -1.4021615497767925e-03 -2 -3 1307 -3.6613950505852699e-03</internalNodes>
          <leafValues>
            1.1474188417196274e-01 -2.1429190039634705e-01
            -2.8205013275146484e-01 2.8998106718063354e-01</leafValues></_>
        <_>
          <internalNodes>
            1 2 1882 -7.1768398629501462e-04 0 -1 1726
            5.8179863117402419e-05 -2 -3 1772 4.2354527977295220e-05</internalNodes>
          <leafValues>
            -2.5999244302511215e-02 3.7610623240470886e-01
